#include "nn_params.h"

const unsigned short LAYER_DIMS[] = {
    6, 100, 100, 100, 2
};

const Layer LAYER_TYPES[] = {
    DENSE, SOFTPLUS, DENSE, SOFTPLUS, DENSE, SOFTPLUS, DENSE, TANH
};

const float STATE_BIAS[NUM_STATE_VARS] = {
    4.544132822e-05, 0.000000000e+00, -3.136757042e-05, 
        0.000000000e+00, 0.000000000e+00, 0.000000000e+00  
};

const float INPUT_SCALER_PARAMS[2][NUM_STATE_VARS] = {
    {-8.710944574e-03, 3.996472060e-03, -1.603280507e-01, 
        -1.197057887e-01, -7.031690133e-04, -4.511075016e-04},
    {3.996234598e+00, 2.307978880e+00, 3.815276914e+00, 
        1.836296944e+00, 3.803337054e-01, 1.130480287e+00}
};

const float OUTPUT_SCALER_PARAMS[4][NUM_CONTROL_VARS] = {
    {-1.396510522e-01, -1.397269307e-01},
    {6.279529036e-01, 6.279664102e-01},
    {3.139766926e-01, 3.139834598e-01},
    {4.301744549e-01, 4.301364536e-01}
};

const float BIASES[NUM_DENSE_LAYERS][MAX_LAYER_DIMS] = {
    {-7.026011944e-01, -1.540374607e-01, -1.862032861e-01, 
        3.777292371e-01, -8.414795995e-02, -2.314520031e-01, 
        -1.689727791e-02, -1.825665385e-01, -5.349056795e-02, 
        -6.339201331e-02, 4.559015334e-01, 7.636623830e-02, 
        -5.028302595e-02, 1.232477546e+00, 9.934248775e-02, 
        2.724791765e-01, -2.147751898e-01, 3.308336809e-02, 
        2.763790637e-02, 1.172889695e-01, -2.750536203e-01, 
        -3.977473453e-02, 2.588312887e-02, -3.078289032e-01, 
        -8.026931882e-01, -3.091376126e-01, -6.709847599e-02, 
        -3.077134304e-02, -5.643869638e-01, 2.004893310e-02, 
        1.252124071e+00, 7.968036085e-02, -8.685811758e-01, 
        -2.697089612e-01, -7.820433378e-02, -1.404726226e-02, 
        2.572081089e-01, -4.775803536e-02, -7.254254539e-03, 
        -2.899082601e-01, 2.788951397e-01, 1.428379416e-01, 
        -1.880891435e-02, -5.864624679e-02, -7.854578495e-01, 
        9.874136746e-02, 6.551871896e-01, -4.742373154e-02, 
        2.207766473e-01, 4.393205978e-03, 4.774622917e-01, 
        -1.332980394e-01, -3.816499412e-01, -1.130845696e-01, 
        2.825804055e-01, 2.812636495e-01, 3.386651725e-02, 
        -2.337903529e-02, -4.997551441e-01, 3.734400570e-01, 
        -1.064854935e-01, -5.968339443e-01, -9.045636654e-02, 
        2.790160775e-01, -4.855942130e-01, -6.027789712e-01, 
        4.585696384e-02, -4.924064130e-02, 2.775226533e-01, 
        2.567994893e-01, 5.022267811e-03, 2.717691660e-01, 
        -6.119216681e-01, 4.829145670e-01, -1.260104328e-01, 
        -1.978069246e-01, -4.184510559e-02, -1.130908281e-01, 
        -7.769206166e-01, -4.001300335e-01, -2.459298633e-02, 
        8.311839104e-01, -2.259433985e+00, -9.131544083e-02, 
        -2.062886804e-01, -2.932527959e-01, 3.059225082e-01, 
        5.617846251e-01, -1.833233386e-01, -2.367800921e-01, 
        -2.177037239e+00, 2.010077834e-01, -4.002918303e-02, 
        3.864574432e-01, 1.529750228e-01, 2.027079165e-01, 
        5.899577960e-02, 2.042735964e-01, -7.983409613e-02, 
        3.752866387e-01},
    {-2.103479803e-01, -7.999584079e-02, -5.008942485e-01, 
        3.961310387e-01, 5.211139098e-02, 5.963293910e-01, 
        2.433104366e-01, 4.815071523e-01, 1.514929533e-01, 
        1.502331942e-01, 3.544994071e-02, 4.197021946e-02, 
        -8.999866992e-02, 3.955621719e-01, -1.773150325e+00, 
        -2.764880359e-01, 7.863255143e-01, -2.292819321e-01, 
        5.705404878e-01, 5.670607686e-01, 1.686042547e-02, 
        1.553129107e-01, 1.065181941e-01, 7.035715133e-02, 
        -4.252517521e-01, 9.341245890e-01, 5.381079912e-01, 
        5.121359229e-01, 4.140022397e-01, 5.387002230e-01, 
        -3.540569916e-02, 1.410129070e-01, -3.356172144e-01, 
        2.300151736e-01, -9.833429754e-02, -3.460643589e-01, 
        2.007024735e-01, 7.359684110e-01, -3.496471941e-01, 
        2.543267012e-01, 1.216950417e+00, 2.318460345e-01, 
        5.179603770e-02, 7.376165390e-01, 4.197697937e-01, 
        4.052855372e-01, -3.799255788e-01, 8.154976368e-02, 
        6.195274591e-01, 1.291689114e-03, 4.574335814e-01, 
        3.070321977e-01, 7.663406432e-02, 7.541445494e-01, 
        3.150485456e-01, 3.336895108e-01, 6.886166930e-01, 
        3.629693687e-01, 6.851297021e-01, 5.494272336e-02, 
        3.919111192e-02, 3.628005683e-01, -5.948584992e-03, 
        -3.793602288e-01, 5.351306796e-01, 4.459784329e-01, 
        1.125781298e+00, 8.399612457e-02, 3.846982121e-01, 
        -3.269819319e-01, -2.124226689e-01, -4.633692503e-01, 
        -3.066136837e-01, 1.329416037e-01, 9.114309400e-02, 
        2.355781198e-01, 1.423546225e-01, 7.456588149e-01, 
        -7.196060419e-01, -1.783193834e-02, 1.517522037e-01, 
        3.663480580e-01, 2.382354885e-01, -5.367749333e-01, 
        -4.918034654e-03, 7.631749511e-01, -9.195787460e-02, 
        1.034237146e-01, -1.468995094e+00, 9.584346414e-02, 
        2.945656478e-01, 2.772380412e-01, -6.922110915e-03, 
        2.631022632e-01, 5.106400847e-01, -9.573435038e-02, 
        -2.475492656e-02, -3.013713285e-02, -1.538679481e+00, 
        5.556836724e-01},
    {5.150349066e-02, 7.175135612e-01, 5.235579014e-01, 
        -1.754016042e+00, 3.040485382e-01, -1.690336876e-02, 
        -7.876847982e-01, -8.150289059e-01, 1.338208020e-01, 
        -5.788367987e-02, 9.242682159e-02, -4.329513907e-01, 
        -8.736196756e-01, -3.029082902e-02, -2.388933659e+00, 
        1.893997192e-01, -1.118317962e+00, 2.281902172e-02, 
        9.526402950e-01, 7.715458870e-01, 5.963472128e-01, 
        4.201919734e-01, 1.563785672e-01, -1.664052844e+00, 
        -2.448576987e-01, -1.444937706e+00, 3.186124861e-01, 
        -4.660934806e-01, -2.076229095e+00, -2.035740614e-01, 
        2.923699021e-01, 6.713876128e-01, -7.128199562e-03, 
        -1.439666510e+00, 1.389707476e-01, 1.462852359e-01, 
        -1.871390045e-01, 4.927875102e-01, 6.773444265e-02, 
        -4.683968127e-01, -7.041751146e-01, -1.014722943e+00, 
        2.547618449e-01, 1.627664268e-01, -9.962221980e-02, 
        -1.290971600e-02, 8.295494318e-02, 8.770350367e-02, 
        1.346296445e-02, 3.851312399e-01, 9.273523688e-01, 
        -5.872799754e-01, -4.128827453e-01, -5.256012678e-01, 
        -9.453566670e-01, 8.973382711e-01, -1.359935254e-01, 
        2.169304192e-01, -4.886647686e-02, 2.936397195e-01, 
        -3.706481457e-01, -4.047816992e-01, 1.507767588e-01, 
        2.086353749e-01, -2.300063819e-01, -5.001676083e-01, 
        -7.175787687e-01, 8.363426477e-02, 3.518760577e-02, 
        1.503185183e-01, 2.615050077e-01, 9.820539951e-01, 
        -4.011032581e-01, -6.549972296e-01, 2.633435726e-01, 
        -5.256564021e-01, -1.736685634e-01, -2.810963690e-01, 
        -1.506458163e+00, -7.785434835e-03, 7.783303857e-01, 
        2.722775936e-01, 5.735555291e-01, 6.699828506e-01, 
        -2.764312923e-01, -2.175898075e+00, -1.978295565e+00, 
        -1.506314635e+00, 8.215382099e-01, 2.868764997e-01, 
        2.701496780e-01, 9.398952723e-01, -7.233656645e-01, 
        6.607366204e-01, 4.839218557e-01, -2.082609653e+00, 
        -1.618867368e-02, 4.398832023e-01, -5.861744881e-01, 
        -3.367159367e-01},
    {-2.446435019e-02, -5.160468072e-02}
};

const float WEIGHTS[NUM_DENSE_LAYERS][MAX_LAYER_DIMS][MAX_LAYER_DIMS] = {
    {
        {-9.208638966e-02, -1.050590351e-01, -8.725368381e-01, 
            -7.864418626e-01, -1.963349104e+00, -5.280448198e-01},
        {4.012745917e-01, 2.113466263e-01, -3.518232107e-01, 
            -1.991889253e-02, -1.509614736e-01, 2.681644633e-02},
        {2.401923388e-01, 4.025563970e-02, -4.061688185e-01, 
            -7.311163843e-02, -4.517287388e-02, 4.616624117e-02},
        {1.548224688e+00, 3.273835182e-01, -4.159687996e+00, 
            -1.435392976e+00, 7.852117717e-02, 1.430885214e-02},
        {2.095645666e+00, 8.476279974e-01, -2.893866062e+00, 
            -5.731118321e-01, 2.096190900e-01, 2.263538539e-01},
        {2.640074864e-02, -8.002318442e-03, -2.500584126e-01, 
            -1.158742756e-01, -3.178761899e-02, -1.340757683e-02},
        {-1.540235758e+00, -2.753298283e-01, 4.929562509e-01, 
            4.445565343e-01, 4.086958244e-02, 4.882753268e-02},
        {7.179083824e-01, 3.722959198e-03, 6.746695042e-01, 
            4.247663021e-01, -2.744307816e-01, -7.385414243e-01},
        {-2.246735618e-02, 1.995067745e-01, -1.480406374e-01, 
            -4.875214696e-01, -1.180434376e-01, -2.093478590e-01},
        {1.092243433e+00, 2.789678276e-01, 1.510378003e+00, 
            9.578900933e-01, -7.448468208e-01, -2.870160043e-01},
        {3.871454298e-02, 1.153148338e-01, -1.729200631e-01, 
            -6.336015463e-02, -8.289615810e-02, -5.537451711e-03},
        {-2.800358295e+00, -3.072229147e+00, -1.065056682e+00, 
            -1.599949956e+00, 1.468267679e+00, -8.436672390e-02},
        {9.958998114e-02, -8.871481568e-02, 5.688714385e-01, 
            -1.967103034e-01, 3.783859909e-01, 1.151844561e-01},
        {-8.900879622e-01, -7.574366778e-02, -2.051426172e+00, 
            3.801264763e+00, -4.600723684e-01, -6.762081385e-02},
        {9.690724611e-01, 7.464331388e-01, 3.673626184e-01, 
            3.863019943e-01, -2.081338167e-01, -5.871839523e-01},
        {-1.852793619e-02, 4.283614457e-03, -2.133440673e-01, 
            -9.359320998e-02, 2.163924044e-03, 1.196403801e-02},
        {3.141616285e-02, -4.286695272e-02, -2.983075380e-01, 
            1.164356545e-01, 6.060142815e-02, 7.878118008e-02},
        {-1.052899361e+00, -5.537559390e-01, -1.497512102e+00, 
            -1.986136287e-01, 1.767858714e-01, 2.963681519e-01},
        {-3.263161331e-02, -3.187652444e-03, -2.190816849e-01, 
            3.225915506e-02, 2.421713807e-02, 4.724122211e-02},
        {-1.130233765e+00, 1.261101365e-01, -1.601135015e+00, 
            -4.541939199e-01, 2.939648628e-01, 3.644225895e-01},
        {3.625114216e-03, -2.455592155e-02, -2.762113512e-01, 
            -1.293296069e-01, -8.354733698e-03, 1.825700630e-03},
        {-8.982096612e-02, 2.691225894e-02, -1.252888739e-01, 
            -7.624138892e-02, -1.095403079e-02, -1.723993011e-02},
        {2.848429680e+00, -2.714056075e-01, -2.807497047e-02, 
            -4.388263524e-01, -6.936008334e-01, -3.393943608e-01},
        {1.593411863e-01, 3.383978903e-01, -6.781165004e-01, 
            3.272350132e-01, 1.172516644e-01, 1.789190322e-01},
        {-8.055527806e-01, -3.975399584e-02, 8.162196875e-01, 
            1.205417514e+00, -9.578655362e-01, -7.006734610e-01},
        {-2.571752369e-01, -7.761894912e-02, -4.996974170e-01, 
            -1.128220782e-01, 1.843062602e-02, -1.069997717e-02},
        {-2.532857358e-01, -7.193119824e-02, 5.317124352e-02, 
            1.530612260e-01, -2.426616848e-01, 4.525970221e-01},
        {-3.980242014e-01, -2.735133767e-01, 3.663301170e-01, 
            8.116596937e-01, 2.905389965e-01, 2.241391540e-01},
        {1.764400482e+00, 1.074546695e+00, -1.124842092e-01, 
            -8.605287671e-01, 1.476521969e+00, 4.512397647e-01},
        {3.097276762e-02, -2.170157619e-02, -2.045913935e-01, 
            3.295354545e-02, 1.909227110e-02, 4.265095666e-02},
        {-6.752450466e+00, -4.926486313e-01, -1.023570061e+01, 
            1.217193007e+00, -3.011359870e-01, -1.985536069e-01},
        {1.701735020e+00, 1.299053669e+00, 1.358255863e+00, 
            1.524814367e+00, -4.651215076e-01, 2.695449442e-02},
        {-8.475267291e-01, 1.357749701e-01, -1.696719527e+00, 
            -6.771405339e-01, -3.235998005e-02, -5.684809685e-01},
        {8.193069100e-01, -2.152575034e-04, -3.466082513e-01, 
            5.394690633e-01, -3.028912842e-01, -1.628324389e-01},
        {4.066582918e-01, 8.645339310e-02, -4.328819811e-01, 
            -2.209589779e-01, -2.244728506e-01, -4.563161358e-02},
        {-1.259250492e-01, -1.883399934e-01, -2.294364423e-01, 
            -2.031338587e-02, 2.798422053e-02, 7.915893942e-02},
        {-2.224618435e+00, -8.701592684e-01, 2.582500696e+00, 
            1.484776020e+00, 4.884455502e-01, 2.691093385e-01},
        {4.808757305e+00, 2.299120188e+00, -1.168944955e+00, 
            -5.839485526e-01, -3.090626895e-01, 2.714843452e-01},
        {-1.768216014e+00, -1.726099290e-02, 1.235283136e+00, 
            -5.676014423e-01, 1.552410603e+00, 5.173596144e-01},
        {-3.126490593e+00, -2.572473288e+00, -2.058366537e+00, 
            -1.067255855e+00, 5.831673145e-01, 1.568330675e-01},
        {-4.088824242e-02, -1.237967797e-02, -2.186380774e-01, 
            -4.144411907e-02, -2.324860916e-02, 1.541521051e-03},
        {-3.713755846e+00, -3.294373512e+00, -1.481341481e+00, 
            -3.008298635e+00, 3.779761791e-01, -1.226046681e-01},
        {-8.530373573e-01, -5.529998541e-01, 5.087392926e-01, 
            -1.312296748e+00, 5.654423833e-01, 6.875148416e-01},
        {-6.639246941e-01, -2.308761925e-01, 1.528837919e+00, 
            8.876570463e-01, 7.102237940e-01, 5.897579193e-01},
        {4.979837537e-01, 9.376805425e-01, -1.349264830e-01, 
            1.355149388e+00, 7.421141267e-01, 3.303560317e-01},
        {1.715055108e-02, 2.531652525e-02, 3.028582633e-01, 
            2.477440983e-01, -9.330971539e-02, -3.831451654e+00},
        {1.989400148e+00, 2.303212881e-01, -7.230671406e+00, 
            -9.901099801e-01, 1.831096411e-01, 1.527833343e-01},
        {6.116726398e-01, 8.199844360e-01, -3.409841537e+00, 
            -9.128572941e-01, 6.652339101e-01, 3.948612511e-02},
        {1.519974470e-01, -1.937001497e-01, -3.997595310e+00, 
            -4.029580653e-01, -4.742052034e-02, -6.441895962e-01},
        {1.419636421e-02, 1.131019555e-02, -2.042173594e-01, 
            -8.331876248e-02, -1.740075275e-02, -1.416753046e-02},
        {2.820615530e+00, -6.798729300e-01, -3.157972097e+00, 
            9.363842964e+00, 1.549758017e-01, 1.073004678e-01},
        {2.922682278e-02, 9.136867709e-03, -2.248542756e-01, 
            -2.325181216e-01, -4.108879343e-02, -3.345754370e-02},
        {-5.023959875e-01, -2.391951978e-01, 2.022978783e+00, 
            2.066416502e+00, 7.669225931e-01, -7.976434231e-01},
        {3.018254280e+00, 2.961138487e+00, 6.308694482e-01, 
            -4.183181822e-01, 7.958416641e-02, 3.308222592e-01},
        {1.677496552e+00, 1.529685616e+00, -1.516108871e+00, 
            -1.862757444e+00, -1.322175145e+00, -7.253999710e-01},
        {-7.466470450e-02, 6.145567447e-02, -1.823993921e-01, 
            -2.736858428e-01, 5.002913624e-02, 3.947038203e-02},
        {4.443528876e-02, 2.792395279e-02, -1.940623820e-01, 
            6.117698923e-02, -6.614847481e-02, -2.902749926e-03},
        {-3.519138098e+00, 5.714799166e-01, -1.655510545e+00, 
            -9.862083197e-01, -1.597400308e+00, -5.486642122e-01},
        {9.152927399e-01, -5.628816485e-01, 7.659884542e-02, 
            1.669327736e+00, 2.707620144e+00, 1.500778913e+00},
        {2.695013046e+00, 1.159405828e+00, -3.423959255e+00, 
            -1.297121406e+00, -1.149442866e-01, -1.392046660e-01},
        {-2.487234212e-02, 7.992076874e-01, 2.215683162e-01, 
            3.362679183e-01, -4.116420150e-01, -4.808502793e-01},
        {1.341776609e+00, 1.431311488e+00, 1.302740350e-02, 
            8.373932838e-01, -2.738422871e+00, 5.216930509e-01},
        {-5.880202353e-02, 1.352681220e-02, -1.189500093e-01, 
            -2.201798111e-01, 7.388507947e-03, -3.665057570e-02},
        {2.185821533e+00, 1.962009311e+00, -3.451131344e+00, 
            -1.838484168e+00, -3.052589595e-01, -3.399404511e-02},
        {-3.584844172e-01, -6.752057374e-02, -1.065636039e+00, 
            -9.251943827e-01, 2.273800611e+00, 1.426777959e+00},
        {-2.015382349e-01, -1.314043999e-01, -1.495638967e+00, 
            -1.559679955e-01, -1.714108467e+00, -2.505489588e-01},
        {1.194043756e+00, 7.032739520e-01, -1.346109748e+00, 
            -5.770224929e-01, -1.052219152e+00, -8.574237823e-01},
        {8.584942818e-01, -8.344168067e-01, -3.290050268e+00, 
            -1.696363330e+00, 1.431931973e+00, 3.842025101e-01},
        {-2.264465570e+00, -6.044321656e-01, -3.200996876e+00, 
            -4.257569611e-01, 8.736286163e-01, 8.307376504e-02},
        {-2.251973152e+00, -1.309738040e+00, -2.372383833e+00, 
            -1.300811887e+00, 1.165621161e+00, 1.117137168e-02},
        {2.315914072e-02, 3.656969219e-02, -1.519735456e-01, 
            -6.201976165e-02, -7.200264931e-02, -1.661077887e-02},
        {1.257672071e+00, 1.312636435e-01, -2.991427898e+00, 
            -7.066355944e-01, -1.134918332e+00, 8.926917613e-02},
        {-1.551677883e-01, -1.253906846e+00, 7.827317119e-01, 
            6.647156477e-01, -8.438404799e-01, -1.477064216e-03},
        {-1.980810612e-01, 4.041940272e-01, 5.473172665e-01, 
            -3.042212725e+00, 3.259447515e-01, -2.654685378e-01},
        {-2.062129676e-01, -1.346008182e-01, 3.341514170e-01, 
            -3.883002102e-01, 2.300835848e-01, -1.110162586e-01},
        {2.845749632e-02, 1.575685889e-01, -8.721167594e-02, 
            -1.618719846e-01, -1.475883871e-01, -1.741472036e-01},
        {-2.324168570e-02, -5.060471892e-01, 4.055928886e-01, 
            3.986229002e-01, 4.760279655e-01, 4.048693180e-01},
        {-2.523336112e-01, -5.424609780e-02, -1.627181053e+00, 
            -1.747926474e+00, -3.785774112e-01, 7.752344608e-01},
        {8.032546043e-01, 6.862862706e-01, -1.546382546e+00, 
            -8.303380013e-01, 1.947345972e+00, -1.226251349e-01},
        {-9.779277444e-01, -5.786558390e-01, -3.906580806e-01, 
            1.764089763e-01, 1.289588094e+00, 2.155501097e-01},
        {2.795390226e-02, 4.684475437e-02, -2.042262554e-01, 
            -2.929959074e-02, -5.158002675e-02, -3.857038915e-03},
        {-7.215275168e-01, 1.200237274e+00, 3.032168627e+00, 
            -2.663139820e+00, -2.346028328e+00, -2.790635526e-01},
        {-1.030710936e+00, -6.463987231e-01, 2.017151415e-01, 
            5.522447079e-02, -1.494923711e+00, -1.158004880e+00},
        {5.919782519e-01, -1.480307244e-02, -1.405834556e+00, 
            3.802590370e-01, -8.780666441e-02, 3.292567655e-02},
        {-2.390542984e+00, -1.205621481e+00, -2.855182409e+00, 
            -1.073453784e+00, -4.471908212e-01, -5.057844520e-01},
        {-5.257362127e-01, -5.345438719e-01, 3.929916918e-01, 
            1.478257895e+00, -5.272673965e-01, 4.137105644e-01},
        {-1.957190633e+00, -6.233701706e-01, -5.680860996e+00, 
            -1.821676016e+00, -4.157682061e-01, 8.550377935e-02},
        {3.407285213e+00, -4.540243149e-01, 1.631676674e+00, 
            -7.330532074e-01, 5.377164483e-01, 5.658230186e-01},
        {-7.914093137e-02, 6.173492409e-03, -3.713681102e-01, 
            -4.609001055e-02, 7.918305695e-02, 4.728281870e-02},
        {-1.693703771e+00, -5.299850702e-01, -3.022531509e+00, 
            -1.376857638e+00, -1.171205282e+00, -4.095497429e-01},
        {-1.338116974e-01, -1.690219492e-01, 9.421956539e-01, 
            5.335156918e-01, 8.516467214e-01, 2.154382706e+00},
        {-2.005927861e-01, 4.118811339e-02, -2.632850170e+00, 
            -2.217761517e+00, 1.074749470e+00, -7.448253687e-03},
        {-1.724410206e-01, -2.104452848e-01, -2.477286756e-02, 
            3.405231833e-01, 2.112895101e-01, 2.507161796e-01},
        {4.977692962e-01, 3.665752709e-01, -5.745392323e+00, 
            -1.173578739e+00, -4.174350202e-02, 1.340465099e-01},
        {-2.171912909e+00, 1.063290715e+00, 6.934036016e-01, 
            -6.571293473e-01, 7.218039632e-01, -2.193055600e-01},
        {2.982481010e-02, -1.586431824e-02, -3.074685335e-01, 
            -3.902471624e-03, 1.246122178e-02, 5.607439950e-02},
        {-1.696967721e+00, -9.710623622e-01, 2.482187033e+00, 
            1.590889454e+00, -1.594268531e-01, -3.608240187e-01},
        {-4.423635826e-02, -1.813066006e+00, -1.653949261e+00, 
            2.893847942e+00, 1.679301739e+00, -2.039646208e-01},
        {-9.074664861e-02, 1.620000042e-02, -5.013160035e-02, 
            2.147251368e-01, -4.666933045e-02, 1.945450669e-03},
        {-3.292641401e+00, -1.169842005e+00, -5.748789787e+00, 
            -1.366599917e+00, -9.770149738e-02, -2.311436087e-01}
    },
    {
        {-7.949562073e-01, 1.536227614e-01, 9.480037540e-02, 
            -2.667378426e+00, -1.457356453e+00, -2.778421342e-01, 
            7.363547683e-01, 1.002646446e+00, -3.203124106e-01, 
            1.057409763e+00, 2.574963272e-01, -1.192373633e+00, 
            1.036099419e-01, 9.572176635e-02, 9.560344219e-01, 
            2.309311628e-01, 8.352746367e-01, 7.959660888e-02, 
            6.879923940e-01, 1.566206664e-02, -2.268642634e-01, 
            5.293290615e-01, 7.600722313e-01, 7.428700924e-01, 
            2.158369124e-01, 6.584428996e-02, 5.849376321e-01, 
            7.619885802e-01, -3.806587160e-01, 4.468790591e-01, 
            -7.131184340e-01, 1.018436313e+00, -7.462918013e-02, 
            1.258477092e+00, 8.887597919e-02, 4.427035451e-01, 
            7.786977887e-01, -1.072404504e+00, 6.042003036e-01, 
            -1.024740934e+00, 4.697380066e-01, -6.551116109e-01, 
            -8.716521412e-02, 4.330048859e-01, 7.644611597e-01, 
            1.772780120e-01, -2.712805986e+00, -1.872605324e+00, 
            -1.658932328e+00, 1.430892199e-01, 1.080320776e-01, 
            -6.905293465e-01, 1.242932796e+00, -6.466204524e-01, 
            -7.350950241e-01, -1.599893421e-01, 8.380295038e-01, 
            -3.939063847e-01, 3.992404640e-01, -2.000006199e+00, 
            8.204159141e-01, 6.242152452e-01, -9.199036658e-02, 
            -1.655841708e+00, -3.084692359e-01, -3.625717461e-01, 
            -1.483839452e-01, -1.475567341e+00, 1.736926264e-03, 
            -7.752628922e-01, 3.418594897e-01, -5.442035571e-02, 
            2.357651889e-01, -1.652255177e+00, -2.100980580e-01, 
            7.251770496e-01, 7.550248504e-01, -9.107525945e-01, 
            -9.734027982e-01, 2.937382162e-01, 4.713640809e-01, 
            3.733411729e-01, -9.659839272e-01, 3.323804736e-01, 
            -2.370157719e+00, 7.027060986e-01, -3.246568441e+00, 
            5.239928365e-01, 2.697852850e-01, -1.849630594e+00, 
            -7.087174058e-01, -2.571029663e+00, 5.996383429e-01, 
            -2.504517078e+00, 8.653697371e-01, 3.298313618e-01, 
            7.600620389e-01, -3.648136556e-02, 7.627671361e-01, 
            -1.982000709e+00},
        {5.311062932e-01, -8.068560809e-02, -3.348889351e-01, 
            2.469794601e-01, -2.388748527e-02, -1.972721368e-01, 
            -1.703733951e-01, 2.270568311e-01, 5.932287574e-01, 
            9.773568064e-02, -1.749795973e-01, 1.325632453e+00, 
            5.357975364e-01, -2.266252279e+00, -6.764615327e-02, 
            -2.661942244e-01, -3.805276453e-01, -2.729881704e-01, 
            4.435241967e-02, -1.215272695e-01, -2.957642078e-01, 
            5.002937913e-01, 1.132140398e+00, -5.610572696e-01, 
            -1.365295798e-01, -4.707709849e-01, 5.566383600e-01, 
            -3.663025498e-01, 1.138974905e+00, -2.522658408e-01, 
            -2.457562923e+00, -2.349636406e-01, -3.139088750e-01, 
            -1.482722312e-01, 2.930213213e-01, -1.642869785e-02, 
            -1.019549608e+00, 7.127733827e-01, 7.477924824e-01, 
            6.011454463e-01, -1.857668720e-02, 1.853455424e+00, 
            7.813544869e-01, -1.310248226e-01, -7.245926857e-01, 
            -1.369145811e-01, -2.652687728e-01, 1.589243114e-02, 
            -4.640142918e-01, 1.196107194e-01, -2.726880312e+00, 
            1.314641088e-01, -8.677142262e-01, 1.513432026e+00, 
            1.234336495e+00, 3.079572916e-01, 1.089643911e-01, 
            3.015633821e-01, -1.453920364e+00, 1.987173855e-01, 
            1.775343120e-01, 1.138088033e-01, 3.389698863e-01, 
            6.909943819e-01, 6.734361649e-01, -1.213236675e-01, 
            -2.291269600e-02, 5.990262628e-01, -6.273812652e-01, 
            6.423065066e-01, 3.224305511e-01, 1.676372290e-01, 
            1.049785614e+00, 1.507582903e+00, 5.936609507e-01, 
            4.746141434e-01, -2.297129780e-01, 7.021249533e-01, 
            1.496636629e+00, 2.522998154e-01, 1.677649617e-01, 
            2.273157597e+00, 7.830586284e-02, -6.241697669e-01, 
            -2.497644722e-01, -8.859865665e-01, -1.969668716e-01, 
            4.094336331e-01, -2.686923146e-01, -5.323808640e-02, 
            -2.517536469e-02, 8.690183759e-01, -4.188367724e-01, 
            -3.548030555e-01, 1.258843064e+00, -3.585930765e-01, 
            -8.247003704e-02, -1.645800114e+00, -9.192726761e-02, 
            -6.187182069e-01},
        {-2.759824991e+00, -1.996356398e-01, -2.778263986e-01, 
            8.113896847e-02, 2.298710942e-01, -2.079752982e-01, 
            4.040325880e-01, -6.237176061e-01, -3.748274148e-01, 
            -8.233725429e-01, -4.745043218e-01, -1.222481951e-02, 
            1.085418314e-01, -2.165095359e-01, -3.077858314e-02, 
            -3.143890500e-01, -5.210314989e-01, -2.035317421e-01, 
            -3.945144713e-01, -7.094068527e-01, -3.424759507e-01, 
            1.352275461e-01, -3.940999508e-01, -1.403010786e-01, 
            -6.324915290e-01, -2.957471311e-01, 6.403902173e-01, 
            -6.708350182e-01, 2.575956583e-01, -5.042251945e-01, 
            -8.171362430e-02, -1.077609286e-01, 7.834505439e-01, 
            -9.276875257e-01, -3.403902650e-01, -2.782828808e-01, 
            -3.717642128e-01, 1.238466352e-01, 7.446014788e-03, 
            2.836242914e-01, -5.742294192e-01, 5.023083463e-02, 
            2.081749290e-01, -5.410792828e-01, 2.065124065e-01, 
            -4.000153840e-01, 1.502404688e-03, 2.204530835e-01, 
            6.560531259e-01, -3.345242143e-01, 1.629582606e-02, 
            -6.585469097e-02, -3.848664761e-01, 1.987470686e-01, 
            -8.664342761e-01, -1.896741986e-01, -6.887563467e-01, 
            1.812050194e-01, 3.030506074e-01, 2.337204665e-01, 
            6.706488132e-01, 7.801990211e-02, -3.577279449e-01, 
            -3.004663810e-02, 2.840889394e-01, -1.205293059e+00, 
            -6.812930703e-01, 7.770949006e-01, -6.473516226e-01, 
            4.794283509e-01, -4.237893224e-01, -4.642212093e-01, 
            9.765420556e-01, 1.420305111e-02, -5.275072530e-02, 
            -3.706474304e-01, -7.705386281e-01, -2.825507224e-01, 
            1.222329497e+00, -7.038592100e-01, -5.287320614e-01, 
            1.513306946e-01, -1.491359830e+00, -3.820981979e-01, 
            3.296310902e-01, 1.171034217e+00, -1.421826035e-01, 
            2.533559203e-01, -5.751780272e-01, -8.653021455e-01, 
            3.396738470e-01, 3.955172896e-01, -3.541719615e-01, 
            7.451798767e-02, 2.214285359e-02, -3.254037201e-01, 
            1.199863106e-01, -7.447020710e-02, -5.669400692e-01, 
            7.574219108e-01},
        {-4.807364643e-01, 2.457269281e-02, 1.396232396e-01, 
            -5.399543047e-01, -5.158316493e-01, 3.363387883e-01, 
            2.733001411e-01, -3.586786091e-01, 5.359335542e-01, 
            3.697930276e-01, 1.787120104e-01, -7.908436060e-01, 
            1.746907383e-01, -8.171198517e-02, -1.642848998e-01, 
            5.556064248e-01, 2.912996113e-01, 2.049632184e-02, 
            3.422676623e-01, -3.215778992e-02, 3.155067861e-01, 
            3.368510902e-01, 2.096776813e-01, 2.307477295e-01, 
            -7.198403031e-02, 1.168732718e-01, 4.958323836e-01, 
            2.565678954e-01, -5.323315859e-01, 3.185518980e-01, 
            -1.649853140e-01, 2.016460896e-01, 1.089031398e-01, 
            6.636806577e-02, 1.615192443e-01, 4.312233329e-01, 
            -2.672020905e-02, -6.947289705e-01, 9.160847217e-02, 
            6.131597161e-01, 4.163899124e-01, -3.857576549e-01, 
            5.653175712e-01, 3.372603357e-01, 3.905444741e-01, 
            -3.333890438e-01, -7.306990623e-01, -1.128077358e-01, 
            2.696711123e-01, 4.470847845e-01, 2.306756973e-01, 
            3.014247715e-01, -1.120285392e+00, -1.362120956e-01, 
            -7.031568289e-01, 4.123983085e-01, 4.438936114e-01, 
            -5.162509680e-01, -2.254796177e-01, -1.083960414e+00, 
            1.996128708e-01, -5.366386771e-01, 4.803840816e-01, 
            -1.302858472e+00, -2.927429378e-01, -1.736899614e-01, 
            -1.739062518e-01, -1.588481516e-01, -2.059486508e-01, 
            3.539518118e-01, 2.863812447e-01, -1.098292470e+00, 
            3.916679323e-01, -3.644829690e-01, -1.350279152e-02, 
            7.902637124e-02, 3.191253245e-01, -2.918198109e-01, 
            -1.008423328e+00, -1.507399678e-01, 3.918784857e-01, 
            1.723259985e-01, -1.012134194e+00, -1.041925251e-01, 
            5.155023336e-01, 2.641321123e-01, -4.592985213e-01, 
            3.420097008e-02, 1.463321596e-01, -8.788358420e-02, 
            5.640980601e-01, 7.416141033e-01, 2.739627659e-01, 
            -1.167992353e+00, -5.039569736e-02, 3.602496982e-01, 
            -7.723178864e-01, -3.777734041e-01, 2.834079266e-01, 
            6.680978537e-01},
        {3.707702756e-01, -6.968624890e-02, -4.957237095e-02, 
            5.221305788e-02, -5.304615200e-02, 7.758834213e-02, 
            -1.743770391e-01, -2.248425782e-01, 1.655434519e-01, 
            -3.711218536e-01, -5.761071295e-02, 5.876190066e-01, 
            -1.260921210e-01, 1.559790522e-01, -6.379328966e-01, 
            8.418883383e-02, 6.645590067e-02, 5.114303827e-01, 
            -1.070459411e-01, 6.055648923e-01, 3.104143739e-01, 
            -5.312374607e-02, -4.392940998e-01, -2.591890097e-01, 
            -2.953964770e-01, 2.816384137e-01, -9.608552605e-02, 
            -1.978500634e-01, -3.643908799e-01, -1.126722172e-01, 
            1.162337586e-01, -8.899296522e-01, -1.633573323e-02, 
            -2.890260518e-02, -4.837265983e-02, 2.898494005e-01, 
            -2.178363055e-01, -2.014144659e-01, 2.570898831e-01, 
            6.801604629e-01, -9.307530709e-03, 5.531602502e-01, 
            6.902130842e-01, -2.049208730e-01, -6.036738157e-01, 
            -1.686640680e-01, 2.525614202e-02, 5.087597370e-01, 
            3.148191869e-01, -1.081746966e-01, -9.302756935e-02, 
            -3.786811605e-02, -4.184289575e-01, -3.323318660e-01, 
            5.628591031e-02, 1.688623577e-01, -2.161410302e-01, 
            2.634609938e-01, -3.278332949e-01, 1.581193805e-01, 
            -3.311699927e-01, -2.821653783e-01, 4.197321832e-02, 
            7.364211679e-01, 5.092213154e-01, 1.346866637e-01, 
            -8.147898316e-02, 5.504020490e-03, 5.934358239e-01, 
            6.982076168e-01, -1.683713496e-01, 5.940859392e-02, 
            1.331363171e-01, 7.336041331e-02, 1.284728050e-01, 
            -2.225030512e-01, 1.537702084e-01, 5.244094133e-01, 
            -7.196253538e-02, 4.654696584e-01, -1.879004985e-01, 
            -2.873419821e-01, 1.348628849e-01, -1.902105957e-01, 
            4.665243328e-01, -9.029794484e-02, 7.728484273e-01, 
            -4.374964535e-01, 2.590916753e-01, 5.136423111e-01, 
            3.515599668e-02, 7.969723344e-01, -3.203044459e-02, 
            4.289448261e-01, -2.962732017e-01, 1.308997869e-01, 
            -1.364104003e-01, 3.315475211e-02, -1.311497986e-01, 
            6.966043711e-01},
        {-6.196728721e-02, 1.921739131e-01, 4.335702956e-01, 
            1.440632045e-01, 3.684014976e-01, 6.054347157e-01, 
            -5.372590423e-01, -3.000761271e-01, 2.499602288e-01, 
            -4.447970390e-01, 3.216254115e-01, 3.041468859e-01, 
            2.748888433e-01, -2.467252761e-01, -2.213481069e-01, 
            5.859757066e-01, 4.329548776e-01, -2.488692999e-01, 
            5.666335225e-01, -2.865466475e-01, 3.429875374e-01, 
            1.302698255e-01, -2.863208354e-01, 4.029202759e-01, 
            -1.114132404e+00, 2.984431386e-01, 9.036815166e-02, 
            -1.278614849e-01, 1.965446472e-01, 5.906880498e-01, 
            -1.404556155e+00, 1.064813733e-01, -4.200576842e-01, 
            4.602322578e-01, 3.369315565e-01, 2.202962041e-01, 
            -6.701893806e-01, 8.719960600e-02, -2.590184808e-01, 
            -5.895150304e-01, 3.190730214e-01, -2.854155190e-02, 
            -3.241500854e-01, 1.236257851e-01, 5.230706334e-01, 
            -3.047443368e-02, -5.824687481e-01, -1.132902801e-01, 
            3.024381399e-02, 6.675734520e-01, 1.487891376e-01, 
            5.723444819e-01, 8.252134919e-02, 1.803012341e-01, 
            -5.349978805e-01, 3.298398852e-01, 6.304187775e-01, 
            -1.950349331e+00, -1.137604117e-01, -2.844105363e-01, 
            1.153680235e-01, -3.429185227e-02, 4.756699204e-01, 
            -1.518978775e-01, -5.057524443e-01, -3.043309748e-01, 
            1.237933636e-01, -1.413941383e-01, -7.513999343e-01, 
            -4.847123325e-01, 6.277674437e-01, 2.169231772e-01, 
            -4.855107516e-02, 1.463954151e-01, 1.679864377e-01, 
            3.836167157e-01, 2.926258445e-01, -7.525849342e-02, 
            -5.910671502e-02, -3.186767101e-01, 6.442691684e-01, 
            -2.564704418e-01, 4.312136769e-01, 8.293621540e-01, 
            -1.843822598e-01, -2.007025629e-01, -1.216380119e+00, 
            6.809043884e-02, 3.747518063e-01, -5.716474652e-01, 
            1.859641075e-01, -1.064536348e-01, 2.142775357e-01, 
            -5.557469130e-01, 2.750972509e-01, 4.224246144e-01, 
            -3.490856588e-01, 1.711232215e-01, 2.112464756e-01, 
            -1.616618872e+00},
        {-4.696178809e-02, 4.232324958e-01, 3.281046152e-01, 
            -3.735966049e-03, 2.188045084e-01, 1.635689139e-01, 
            2.932757735e-01, 4.885792732e-01, 9.279311448e-02, 
            2.641068399e-01, 4.021675885e-01, -2.395915538e-01, 
            1.467245072e-01, -1.376776211e-02, 4.104296267e-01, 
            8.417797834e-02, 2.954376340e-01, -2.655354738e-01, 
            2.728776932e-01, -2.563767731e-01, 1.627269983e-01, 
            3.141840696e-01, 5.415542126e-01, 4.134857357e-01, 
            -7.192589343e-02, -1.419839915e-02, 4.240158796e-01, 
            1.781877577e-01, -4.697138071e-01, 3.385618925e-01, 
            -5.914350152e-01, 3.176862895e-01, -4.090087712e-01, 
            2.772811651e-01, 2.831096053e-01, -1.097406596e-01, 
            -2.472566962e-01, -4.578608088e-03, 1.338878125e-01, 
            -4.595203698e-01, 5.414713547e-02, -6.806737930e-02, 
            -7.007786632e-02, 2.621991932e-02, 1.351710856e-01, 
            7.760192454e-02, -2.838446498e-01, -1.458589733e-01, 
            -2.983560860e-01, 2.419960797e-01, 3.500482440e-02, 
            1.311036944e-01, -1.185224019e-02, -9.223951399e-02, 
            2.383763343e-01, 7.417898625e-02, 3.168386519e-01, 
            -6.728370786e-01, 3.044700921e-01, -1.873090863e-01, 
            2.581502795e-01, 1.308969110e-01, -4.100404680e-02, 
            1.059691608e-01, -2.648302317e-01, -2.580910921e-01, 
            1.845816970e-01, -3.711090684e-01, -6.904540062e-01, 
            -1.482073218e-01, 2.860295773e-01, 8.425030112e-02, 
            -1.187436134e-01, 2.941588126e-02, 1.168145910e-01, 
            5.159507990e-01, -9.525854141e-02, -8.528380841e-02, 
            -2.349242270e-01, 1.516401768e-02, 4.974647462e-01, 
            1.051891595e-01, 4.313949645e-01, 2.782904506e-01, 
            -6.155172586e-01, -1.533179134e-01, -8.785648346e-01, 
            -2.367511988e-01, 2.074719071e-01, -5.074203610e-01, 
            -2.569307983e-01, -4.677125216e-01, 3.663939238e-01, 
            -3.999029100e-01, 8.827968687e-02, 1.186360791e-01, 
            -1.500545740e-01, 5.258729681e-02, 1.945617348e-01, 
            -1.127668858e+00},
        {-5.721846595e-02, 2.461664230e-01, 5.366054773e-01, 
            3.455361724e-01, 2.707836926e-01, 2.033088952e-01, 
            2.596341372e-01, 2.770490013e-02, 3.943698704e-01, 
            -2.775097266e-02, 3.432893157e-01, -3.117708862e-01, 
            1.143934727e-01, -2.287369519e-01, -8.816010319e-03, 
            4.232371747e-01, 3.246403635e-01, 4.318020120e-02, 
            2.710178792e-01, 1.355007291e-01, 3.565592766e-01, 
            3.575834930e-01, 8.278150856e-02, 2.859303951e-01, 
            2.762980759e-02, 3.176227808e-01, 1.038737446e-01, 
            -1.033153087e-01, -4.052579999e-01, 4.610766768e-01, 
            -6.013556123e-01, -3.080762029e-01, 1.711367816e-01, 
            -8.103718050e-03, 2.877122462e-01, 2.882798016e-01, 
            1.965140365e-02, -5.835939050e-01, -9.936118871e-02, 
            -2.153219432e-01, 2.343932241e-01, -6.046136841e-02, 
            2.136905342e-01, -2.103209496e-01, -5.362582207e-02, 
            -1.401022077e-01, 3.780706227e-01, -1.733849756e-02, 
            5.287189484e-01, 3.751721680e-01, -1.128851891e+00, 
            4.405988753e-01, -5.187700391e-01, -4.864872992e-01, 
            -5.319612026e-01, 1.738575995e-01, 2.965436280e-01, 
            -3.877717257e-01, -5.965636969e-01, 1.968346350e-02, 
            5.053143017e-03, -2.901978232e-02, 4.414038062e-01, 
            -3.147036433e-01, 1.202969998e-01, -3.471944332e-01, 
            3.355840743e-01, -2.001007274e-02, 5.766183138e-01, 
            2.306050807e-01, 4.268394113e-01, 4.654802755e-02, 
            1.817372143e-01, 9.784875065e-02, 1.354184896e-01, 
            1.666383445e-01, 1.668717712e-01, 5.160547420e-02, 
            -1.559686959e-01, 1.085089445e-01, 1.828046739e-01, 
            1.989737302e-01, 6.501078606e-02, 3.306689560e-01, 
            -1.050324589e-01, -3.911800086e-01, 2.493222430e-02, 
            -1.997167170e-01, 2.081394345e-01, -3.708168864e-01, 
            2.821159959e-01, 1.722280383e-01, 3.202390075e-01, 
            3.159434199e-01, 1.174657643e-01, 4.060059488e-01, 
            -5.137320757e-01, -2.380968034e-01, 2.311542034e-01, 
            3.706829846e-01},
        {-9.034470916e-01, 3.041965365e-01, 1.514596194e-01, 
            -8.818864226e-01, -2.536384463e-01, 1.878749579e-01, 
            2.118429989e-01, 7.480078340e-01, -8.009026945e-02, 
            5.084365010e-01, 2.727296650e-01, -4.058901668e-01, 
            1.243285686e-01, -1.548040193e-02, 1.209767684e-01, 
            -6.695566699e-03, -3.505564481e-02, 1.260944158e-01, 
            1.830821335e-01, 1.426979065e+00, 2.116190940e-01, 
            -4.522163887e-03, 4.232307076e-01, -6.041181087e-02, 
            1.345655620e-01, 4.141395092e-01, 8.689972013e-02, 
            5.756714195e-02, -5.271446891e-03, 3.857393935e-02, 
            -4.765604436e-02, 1.455077380e-01, 7.566348910e-01, 
            5.425930619e-01, 2.800260186e-01, -1.308934391e-02, 
            -5.076333135e-02, -3.809598684e-01, -3.087485433e-01, 
            -6.629177332e-01, 5.446123332e-02, -5.686476827e-01, 
            -7.573944982e-03, -2.024509907e-01, -1.066168919e-01, 
            3.768050373e-01, -5.636534467e-02, 2.285238504e-01, 
            -2.255578525e-02, 2.535342574e-01, 8.529013395e-02, 
            4.672696441e-02, 1.192807108e-01, -6.091117263e-01, 
            -1.286314726e+00, -9.145938791e-03, 3.793836832e-01, 
            4.632317722e-01, -8.462441564e-01, -6.223716736e-01, 
            -2.087741196e-01, 4.341317713e-01, 1.346314698e-01, 
            -1.473117232e+00, -4.530307770e+00, -4.763216078e-01, 
            -6.418878436e-01, -2.084517479e+00, -6.315109134e-01, 
            -2.199040890e+00, 2.618460357e-01, -1.218216941e-01, 
            1.837067008e-01, 1.421102434e-01, 4.206313491e-01, 
            6.143340468e-02, -3.288509846e-01, -7.783454657e-01, 
            -5.343331099e-01, -2.665099502e-01, 3.452602327e-01, 
            2.361923456e-01, -3.039279878e-01, 3.045165837e-01, 
            -3.819858432e-01, 1.691022366e-01, 1.935187727e-02, 
            -3.531273007e-01, -4.222785681e-02, -6.588731706e-02, 
            -2.448622227e+00, -3.006361723e+00, -8.646779507e-02, 
            -2.412249595e-01, -4.234916270e-01, 6.064628810e-02, 
            3.601782918e-01, 1.889287829e-01, 3.045454323e-01, 
            -1.576373339e+00},
        {2.255195230e-01, 5.385594442e-02, 3.752475977e-01, 
            -5.256177187e-01, -6.263775826e-01, 2.007663250e-01, 
            -6.919580046e-03, 3.132551536e-02, 3.103888929e-01, 
            -5.473803878e-01, 2.867498100e-01, 1.853316426e-01, 
            5.986177921e-02, -2.722769976e-01, -5.644523501e-01, 
            5.601640791e-02, 1.573957801e-01, 3.214566708e-01, 
            1.819175184e-01, 4.294826984e-01, 9.819954634e-02, 
            -8.686191589e-02, 8.881464601e-01, 5.657420754e-01, 
            -3.480834961e-01, 2.679899335e-01, -3.232662380e-02, 
            -1.967516541e-01, -9.486775398e-01, 8.234729059e-03, 
            -4.925918300e-03, -1.384024620e+00, -2.889807522e-01, 
            -3.563967943e-01, 2.819804847e-01, 7.443038374e-02, 
            -9.702905416e-01, -1.161340952e+00, 2.457293272e-01, 
            3.356582224e-01, 2.900022268e-01, 1.880594939e-01, 
            -4.871244356e-02, 1.812208593e-01, -1.729688793e-02, 
            9.248068184e-02, 8.472905159e-01, 7.402418256e-01, 
            -1.329573989e-01, 1.554458886e-01, -2.467775643e-01, 
            7.743481547e-02, -1.658021957e-01, 6.243888736e-01, 
            3.191810250e-01, 2.375129610e-01, -1.936409436e-02, 
            2.889400534e-02, -2.394115210e+00, -9.025231600e-01, 
            -4.224924445e-01, -1.591085941e-01, 3.003041744e-01, 
            -2.664386928e-01, -6.066986322e-01, 1.923228651e-01, 
            4.265306592e-01, -1.787138700e+00, 6.347480416e-01, 
            5.270833969e-01, 1.294094622e-01, 4.588899612e-01, 
            5.634104013e-01, -4.433551431e-01, 1.415646821e-01, 
            -6.925936788e-02, 1.853042282e-02, -1.232965067e-01, 
            -1.331588179e-01, 7.975627780e-01, 2.756466866e-01, 
            4.074634016e-01, 1.349565238e-01, 1.511141956e-01, 
            -7.192914188e-02, -6.445146203e-01, -6.468034387e-01, 
            -4.061161578e-01, 3.763622940e-01, -4.520419613e-02, 
            -6.258435249e-01, -2.040468007e-01, -1.042018272e-02, 
            -3.819767535e-01, 8.143331110e-02, 2.651997805e-01, 
            -8.364465833e-01, -1.730673909e-01, 1.316827089e-01, 
            -5.712178349e-01},
        {2.810679004e-02, 2.117117643e-01, -8.810565621e-02, 
            -5.950514674e-01, 2.972324491e-01, -1.249124855e-01, 
            1.023401842e-01, -7.081080079e-01, 2.694233060e-01, 
            -7.878184915e-01, 4.065864161e-02, 3.913538456e-01, 
            2.398597822e-02, 1.309387982e-01, -2.431412041e-01, 
            2.475566268e-01, 1.705424339e-01, -5.882961676e-02, 
            1.320042759e-01, 1.449359208e-02, 6.862299144e-02, 
            2.041507214e-01, -1.911274910e+00, 6.716056913e-02, 
            3.954035640e-01, 2.531944513e-01, 3.245310485e-01, 
            2.272105813e-01, 4.206615388e-01, 1.309705079e-01, 
            6.894873977e-01, -6.669383645e-01, 5.743497014e-01, 
            -5.098888874e-01, -1.019024923e-01, 4.039914608e-01, 
            2.361272424e-01, 1.632531285e-01, -2.861458063e-01, 
            5.502434969e-01, 3.155120909e-01, 2.923356183e-02, 
            -9.081290103e-03, -6.332838535e-02, -1.003966704e-01, 
            3.217264637e-02, -1.260236979e+00, -1.607150286e-01, 
            -5.513264537e-01, 7.987820357e-02, -2.407544553e-01, 
            2.125251442e-01, 2.534004450e-01, -3.060714900e-01, 
            -2.586793303e-01, 2.922257185e-01, -1.796384305e-01, 
            1.379297078e-01, -2.851147354e-01, -2.087397724e-01, 
            1.386315525e-01, -2.255590260e-01, 1.166594848e-01, 
            1.494585723e-01, -7.655079961e-01, 1.917894185e-02, 
            -1.435669959e-01, 5.543014500e-03, 4.004388750e-01, 
            2.506692111e-01, -7.967989892e-02, -5.919365957e-02, 
            5.146892071e-01, -2.642750144e-01, 3.313315511e-01, 
            5.050427467e-02, 3.588261902e-01, 1.314924657e-01, 
            -2.365275323e-01, 9.857033938e-02, -1.845946312e-01, 
            2.826136351e-01, 5.621009469e-01, -3.523837924e-01, 
            3.014884889e-01, -7.207831740e-02, 1.862272769e-01, 
            -8.394654989e-01, 3.410869241e-01, 5.023000240e-01, 
            -3.438630328e-02, 1.114559770e-01, 2.025790364e-01, 
            -3.663851917e-01, -1.887835115e-01, -1.164546534e-01, 
            -9.343408048e-03, -9.708641469e-02, -1.609943062e-02, 
            4.636318386e-01},
        {3.942649662e-01, 2.425511330e-01, 2.630553544e-01, 
            8.065459132e-02, -5.547761917e-01, 1.789582670e-01, 
            -5.071737766e-01, 5.749818310e-02, 3.367685378e-01, 
            -6.978076100e-01, -7.486571372e-02, 4.630596936e-02, 
            6.832690239e-01, 6.714618206e-02, -1.183537617e-01, 
            -4.810446501e-02, -1.571405679e-02, -5.568813998e-03, 
            3.691180050e-02, -2.463226914e-01, 1.845706850e-01, 
            -6.582056731e-02, 2.676014006e-01, -1.539310366e-01, 
            -2.878105044e-01, 4.090870023e-01, -6.245431304e-01, 
            -7.294350863e-01, -2.147336453e-01, -1.786799878e-01, 
            6.578121334e-02, -2.703884244e-01, 8.592854738e-01, 
            1.832804978e-01, 6.483296156e-01, 1.011701450e-01, 
            -7.770206928e-01, -2.141407505e-02, -8.007525802e-01, 
            4.311974943e-01, 2.948255837e-01, -1.288743922e-03, 
            6.485572457e-01, -7.961848378e-01, 1.907609552e-01, 
            -3.731761277e-01, -3.882263303e-01, -3.720790446e-01, 
            1.495977491e-01, 1.462510973e-01, 1.718782187e-01, 
            4.971638918e-01, 2.146350592e-01, 2.333683074e-01, 
            7.119846940e-01, 2.689691186e-01, 1.388489082e-02, 
            6.673224270e-02, -8.629285097e-01, 5.211262703e-01, 
            -1.178441197e-01, -2.045514435e-01, 5.093691126e-02, 
            9.030187130e-01, -2.774637938e+00, 7.976909876e-01, 
            1.509736329e-01, -5.430276394e-01, -4.567270577e-01, 
            -2.449061722e-01, -1.342256963e-01, 2.213920057e-01, 
            -3.117598891e-01, 2.200174183e-01, 4.694127738e-01, 
            5.293621495e-02, -1.036833644e+00, 9.713771939e-02, 
            -1.194527030e+00, -1.679687738e+00, 1.759779006e-01, 
            -5.911303163e-01, 3.746629506e-02, 6.590138078e-01, 
            5.439166427e-01, -3.512102664e-01, -8.081255853e-02, 
            -1.668663621e-01, -2.798244953e-01, 3.463684618e-01, 
            -6.790356636e+00, -3.297745883e-01, -7.345182300e-01, 
            -2.538938224e-01, 6.665859818e-01, -1.194367185e-01, 
            -7.520930171e-01, 3.635525405e-01, -3.062985241e-01, 
            2.457436640e-03},
        {3.383737803e-01, 1.966796257e-02, -9.136451408e-04, 
            7.746388763e-02, -1.248763688e-02, -4.592677206e-02, 
            -1.702599674e-01, -1.090071276e-01, 7.858934253e-02, 
            -3.784126341e-01, 1.187524050e-01, 3.446291983e-01, 
            -1.550955325e-01, -1.238656119e-01, -3.273421228e-01, 
            -1.128015444e-01, -1.035401523e-01, -3.634678125e-01, 
            -1.261816546e-02, -1.881515086e-01, -4.364834353e-02, 
            -1.082936898e-01, -5.078952312e-01, -2.811333835e-01, 
            1.938666552e-01, 2.205680683e-02, -2.444126271e-02, 
            -3.437501490e-01, 8.118214458e-02, -9.819961339e-02, 
            2.749424428e-02, -2.908753157e-01, 1.373324096e-01, 
            -2.655605376e-01, -3.947504237e-02, -8.753875643e-02, 
            -2.743050456e-01, -1.656776667e-01, 8.637832105e-02, 
            3.649114817e-02, -1.101436187e-02, 2.164442390e-01, 
            -1.223661155e-01, -2.257954329e-01, -3.916502595e-01, 
            2.513076961e-01, 2.081902325e-01, -2.144491822e-01, 
            8.365577459e-02, -2.172089070e-01, 1.592068076e-01, 
            1.751997322e-01, 1.258797199e-01, 3.817484379e-01, 
            2.345892638e-01, -6.382720917e-02, -3.046703339e-01, 
            1.760660112e-01, -4.267837405e-01, 1.214095205e-01, 
            -5.550445616e-02, 5.585549399e-02, 9.361119568e-02, 
            4.260783195e-01, -9.071052074e-01, 7.673027366e-02, 
            -1.815284342e-01, -2.933261096e-01, 6.686795503e-02, 
            -3.539216816e-01, -2.575544417e-01, 2.208894938e-01, 
            4.467387497e-01, 1.811514050e-01, 3.022650443e-02, 
            -9.290599823e-02, -4.656263888e-01, 2.021539658e-01, 
            -1.855879724e-01, -2.726283371e-01, -2.680351138e-01, 
            -5.881286040e-02, 6.616792083e-01, -1.460943371e-01, 
            -6.610281765e-02, -1.022723392e-01, 3.531808853e-01, 
            -2.713991096e-03, -1.331477314e-01, 3.307879865e-01, 
            5.646011978e-02, -2.627250738e-02, -3.686436713e-01, 
            1.641051620e-01, -1.274629980e-01, -2.142252177e-01, 
            -1.457869355e-02, 2.167271376e-01, 1.110103205e-01, 
            4.131474197e-01},
        {1.476670206e-01, 2.387270182e-01, 3.503835797e-01, 
            6.892815828e-01, 1.994231790e-01, 4.148966074e-01, 
            -1.587117761e-01, -1.706394106e-01, -1.989990324e-01, 
            -2.875193059e-01, 3.555726111e-01, -4.850645065e-01, 
            1.048272252e-01, 1.643103063e-01, -1.341818124e-01, 
            3.534908295e-01, 1.874475032e-01, 3.781317174e-01, 
            3.161685765e-01, 5.785052180e-01, 3.587928712e-01, 
            1.158677265e-01, -3.291307092e-01, -4.448019341e-02, 
            -4.236475825e-01, 4.029921591e-01, -1.369349062e-01, 
            -7.836749405e-02, -6.118677184e-02, 2.087653726e-01, 
            4.741002619e-01, -3.159995079e-01, 5.220636129e-01, 
            1.580867320e-01, 5.063438416e-01, 2.485581934e-01, 
            -5.252345800e-01, -1.142615825e-01, -9.122235775e-01, 
            -2.335542440e-01, 2.045783252e-01, -1.707075119e+00, 
            -7.983978987e-01, -8.827874064e-02, -4.899502099e-01, 
            -6.315351278e-02, 5.777120590e-01, 6.422472596e-01, 
            8.960046768e-01, 4.391209185e-01, -1.998554617e-01, 
            3.819422126e-01, -4.209906757e-01, -7.534074131e-03, 
            8.227600716e-03, 3.446916938e-01, 2.080703229e-01, 
            -5.308498144e-01, 2.150138617e-01, 3.947754800e-01, 
            -1.561027467e-01, 4.364905879e-02, 9.437391907e-02, 
            -4.111402109e-02, -6.768599153e-02, 5.656981468e-01, 
            5.092179775e-01, -1.192485094e-01, 4.154517651e-01, 
            4.858469665e-01, 1.889168769e-01, 8.488792777e-01, 
            -4.711769819e-01, -2.005309105e+00, -2.819610834e-01, 
            1.972756833e-01, -4.865520075e-02, 4.582738280e-01, 
            3.393456638e-01, -6.586898863e-02, 2.211263627e-01, 
            -1.779733419e+00, -1.268180609e-01, 3.263502717e-01, 
            7.592375278e-01, -3.343853056e-01, 6.702504158e-01, 
            -1.720044136e+00, 1.788663268e-01, 6.586223245e-01, 
            -6.785687208e-01, 4.085217044e-02, 9.493033588e-02, 
            5.752545595e-01, -1.267234564e+00, 2.263058871e-01, 
            -7.796038985e-01, 1.807473302e-01, 3.838532045e-02, 
            8.727235794e-01},
        {2.356405973e+00, -1.584567070e+00, -1.164276958e+00, 
            -8.522217870e-01, -1.264880449e-01, -1.658148289e+00, 
            -3.423630595e-01, -4.310876429e-01, -1.471554875e+00, 
            -6.312434673e-01, -1.838868380e+00, -2.987728119e-01, 
            1.225833967e-01, 1.398612708e-01, -3.017020524e-01, 
            -1.551092267e+00, -4.094482660e-01, -1.016748786e+00, 
            -5.678173900e-01, -3.373252451e-01, -1.556818843e+00, 
            -6.280854940e-01, 1.611025035e-01, -1.860101372e-01, 
            -8.139930367e-01, -1.204046369e+00, -4.006249905e-01, 
            5.384663120e-02, 3.301790059e-01, -6.713972688e-01, 
            -1.228816211e-01, -7.876730710e-02, -7.022947073e-01, 
            -5.989290476e-01, -2.015183210e+00, -8.722383380e-01, 
            -6.905972213e-02, 1.984035224e-02, 5.135831833e-01, 
            -8.616693020e-01, -1.645241380e+00, -1.936736107e-01, 
            -3.492047638e-02, 4.173682332e-01, 5.217173100e-01, 
            1.557976007e+00, 1.724434644e-02, -1.415701360e-01, 
            8.271032572e-02, -1.271732926e+00, 2.887136070e-03, 
            -2.124793530e+00, 4.131772816e-01, 1.905114017e-02, 
            1.264810190e-02, -1.422193170e+00, -1.300052762e+00, 
            1.041216180e-01, 4.931318164e-01, -1.300761402e-01, 
            -8.283976912e-01, 7.503095269e-01, -1.436297059e+00, 
            -5.001084805e-01, 6.463029981e-01, 3.372415006e-01, 
            -2.350414515e+00, -1.205704361e-02, -2.322969586e-02, 
            -6.293856353e-02, -1.394985676e+00, 2.405841351e+00, 
            -4.984775484e-01, -2.107931674e-01, -1.727868915e-01, 
            -1.177073717e+00, 2.640325427e-01, 5.393815041e-01, 
            1.048506260e+00, 7.146375179e-01, -1.245177627e+00, 
            -7.980725169e-02, 8.860678226e-02, -3.742010295e-01, 
            -6.110251546e-01, -2.878089845e-01, -3.354559422e+00, 
            2.192115784e-01, -4.661028385e-01, 1.342591286e+00, 
            5.314579606e-01, 3.710793257e-01, -9.592851251e-02, 
            -9.930031896e-01, 3.349735737e-01, -1.036726117e+00, 
            -8.155672252e-02, 2.720735371e-01, -5.461549759e-01, 
            1.952148378e-01},
        {-2.043776363e-01, -8.810196817e-02, -9.011289477e-02, 
            -4.056320190e-01, -9.362727404e-01, 4.994724691e-02, 
            -2.599717975e-01, 5.574721098e-01, -6.208636761e-01, 
            -9.044476599e-02, -2.714389563e-01, 2.010023743e-01, 
            6.462547928e-02, -7.977975905e-02, 3.050267100e-01, 
            -2.550791204e-01, 1.778762974e-02, -8.191699535e-02, 
            1.140302271e-01, -1.471626461e-01, -2.925401032e-01, 
            -4.988304377e-01, -4.246260598e-02, -2.064475119e-01, 
            -4.330804646e-01, 1.092289686e-01, -8.714942336e-01, 
            -1.307839621e-02, 4.505208135e-01, -8.038714528e-02, 
            2.243009508e-01, 4.082700983e-02, -4.559035972e-02, 
            4.490569830e-01, -2.378859371e-01, -1.380994320e-01, 
            -1.107355654e-01, -3.441165984e-01, 5.163407922e-01, 
            -2.526219487e-01, -1.845995933e-01, -3.249046803e-01, 
            -4.199525416e-01, -1.126645878e-01, -3.358145431e-02, 
            9.714082628e-02, -1.095786810e+00, -1.015047789e+00, 
            -1.896704137e-01, -1.999854445e-01, 1.928861439e-01, 
            -3.127597570e-01, 1.071543992e-01, 4.922739789e-02, 
            -1.079810023e+00, -2.974123359e-01, -1.233458295e-01, 
            -1.184351146e-01, 2.428033799e-01, -1.409826994e+00, 
            2.511503100e-01, 1.118673105e-02, 1.773870364e-02, 
            -1.895389199e+00, 3.444085419e-01, 2.379830927e-01, 
            -6.208976731e-02, 5.871085450e-04, -2.679981887e-01, 
            -1.792785525e-01, -2.502321266e-02, 1.443714142e+00, 
            -7.333902717e-01, 1.859358698e-01, 3.256763816e-01, 
            1.959408447e-02, -1.782548279e-01, -7.170564532e-01, 
            2.606225610e-01, 2.732574940e-01, -1.686078124e-02, 
            -3.690682650e-01, -5.103879794e-02, 2.495273203e-01, 
            5.395461246e-02, -4.414092898e-01, -4.580247104e-01, 
            -1.622408330e-01, -2.161028385e-01, -1.043644175e-01, 
            -6.319526434e-01, -3.651584685e-01, -2.288908511e-01, 
            -1.377514958e+00, 1.523948740e-02, -4.223386198e-02, 
            2.650658488e-01, 4.187950492e-01, -8.943043649e-02, 
            -3.500793278e-01},
        {4.174996167e-02, 7.687394023e-01, 6.706874967e-01, 
            1.277519614e-01, 3.224742785e-02, 7.284527421e-01, 
            -1.641179174e-01, 2.743962109e-01, 5.678392053e-01, 
            -3.677383810e-02, 6.443618536e-01, -1.526009440e-01, 
            3.502631485e-01, -2.355590314e-01, 3.589417934e-01, 
            6.470932364e-01, 2.345921099e-01, -3.464202955e-02, 
            4.368692040e-01, -2.408193052e-01, 6.025390029e-01, 
            1.804172695e-01, 1.330266893e-01, 1.997712255e-01, 
            -7.649617195e-01, 1.267743409e-01, 1.102527380e-01, 
            1.281799525e-01, -3.048141003e-01, 4.817692041e-01, 
            -2.677479506e+00, 2.478924245e-01, -2.081970572e-01, 
            5.974545479e-01, 7.925539017e-01, 4.692893922e-01, 
            -1.035734788e-01, -3.162730932e-01, -4.500325024e-02, 
            -6.505365372e-01, 7.295843363e-01, -1.860779822e-01, 
            -3.570309654e-02, 8.392338455e-02, -1.011554673e-01, 
            3.201632947e-02, -8.601532578e-01, -3.463902473e-01, 
            2.958041131e-01, 7.805988789e-01, -5.243199691e-02, 
            4.584809840e-01, -8.588127792e-02, 3.141827416e-03, 
            1.555043012e-01, 4.383147061e-01, 4.178416133e-01, 
            -1.521253228e+00, -3.025463820e-01, 1.120855212e-01, 
            1.079617068e-01, -7.065647244e-01, 5.074443221e-01, 
            -5.088648796e-01, -7.540332079e-01, 1.714453474e-02, 
            6.483796239e-01, -2.068208903e-01, -9.596627355e-01, 
            -4.210835099e-01, 6.580661535e-01, 5.205879807e-01, 
            -3.505026698e-01, 1.001646072e-01, 2.834560573e-01, 
            5.574632883e-01, 2.700290680e-01, 4.470894113e-02, 
            -3.826407194e-01, 4.306957498e-02, 5.910073519e-01, 
            -9.208194166e-02, -5.809345841e-01, 6.903365850e-01, 
            -2.625855505e-01, 1.530418843e-01, -8.673102856e-01, 
            -8.862062544e-02, 3.031610548e-01, -5.344429612e-01, 
            -3.387435377e-01, -8.147063851e-01, 2.871209085e-01, 
            -6.587107778e-01, 5.683509633e-02, 6.074185371e-01, 
            -2.586596608e-01, 4.085616395e-02, 4.050912559e-01, 
            -1.307601929e+00},
        {-1.078759313e+00, -3.305326216e-03, 1.113657723e-03, 
            1.710752249e-01, 9.109995365e-01, 9.416759759e-02, 
            -1.024254441e+00, -8.658423424e-01, 1.905739903e-01, 
            -9.700391293e-01, -2.590376139e-01, -1.682453003e-04, 
            -2.270772904e-01, -1.308047175e-01, 5.286030471e-02, 
            -8.665568382e-02, -2.347037382e-02, -2.221233398e-01, 
            -2.800581157e-01, -6.395233274e-01, 4.016319662e-02, 
            -3.495125175e-01, -4.729187489e-01, 3.534568250e-01, 
            9.579722285e-01, -3.164797425e-01, 1.000967715e-02, 
            -3.672347069e-01, 7.837377787e-01, -1.725635119e-02, 
            6.874632835e-02, -1.139839441e-01, 2.233877331e-01, 
            -7.899745107e-01, 2.739235014e-02, -2.138187736e-01, 
            -3.685182631e-01, 3.065341711e-01, -6.655799747e-01, 
            6.244994998e-01, -1.816748381e-01, 2.355136871e-01, 
            -6.211732626e-01, -4.998630881e-01, 3.726556301e-01, 
            -1.164171658e-02, 1.849540621e-01, 2.796217501e-01, 
            -2.401565909e-01, -8.310431987e-02, -3.516155109e-02, 
            8.619817346e-02, -7.535275817e-01, 3.297896683e-01, 
            5.185344815e-01, -2.293438911e-01, -6.395101547e-02, 
            -7.906532288e-02, 4.265059251e-03, 3.874360919e-01, 
            1.333928853e-01, 1.305576041e-02, -2.986782491e-01, 
            5.511614084e-01, -1.811740100e-01, -3.196104765e-01, 
            -3.034575880e-01, 5.964289904e-01, -1.207920462e-01, 
            -2.442158163e-01, -2.766785324e-01, 2.087845504e-01, 
            4.373491704e-01, 7.482075691e-02, 2.195495926e-02, 
            1.237019971e-01, -1.129015610e-01, 3.237891495e-01, 
            6.498910785e-01, -3.517505825e-01, -8.529626578e-02, 
            -1.241588891e-01, -3.169343472e+00, 3.590150550e-02, 
            -2.899931744e-03, 2.252505347e-02, 3.475456834e-01, 
            6.498367190e-01, -2.205789238e-01, -2.617525309e-02, 
            3.245914578e-01, -5.786078796e-02, -4.734798521e-02, 
            1.154771596e-01, -1.300616860e-01, -1.399228126e-01, 
            9.476517439e-01, 2.561731935e-01, -2.289532870e-01, 
            4.200741649e-01},
        {-6.618671119e-02, 1.789591275e-02, 3.230330050e-01, 
            -3.757982254e-01, -1.365650445e-01, 4.758162498e-01, 
            3.676681966e-02, 2.048354596e-01, 4.811138213e-01, 
            -2.986250329e-04, 3.550900221e-01, -1.137816906e-01, 
            -7.979474962e-02, 1.105853766e-01, -7.354536653e-01, 
            5.204244256e-01, 8.691623807e-02, 8.353025913e-01, 
            3.374663889e-01, 6.543555856e-01, 6.945775151e-01, 
            7.982665300e-02, 5.909584165e-01, -9.131092578e-02, 
            2.717279829e-02, 6.841017604e-01, 2.523841895e-02, 
            -1.795848459e-01, -9.020165801e-01, 4.908650815e-01, 
            -3.960551694e-02, -1.027675867e+00, 1.448669583e-01, 
            2.416710109e-01, 6.838206202e-02, 5.480675101e-01, 
            1.156271473e-01, -1.162436724e+00, 1.037813276e-01, 
            3.527485579e-02, 7.100793123e-01, -3.046168387e-01, 
            -8.435346186e-02, -2.598761320e-01, -7.259843349e-01, 
            5.400834605e-02, -7.468524575e-02, 2.548629045e-01, 
            3.227502108e-01, 5.535621643e-01, -1.829236746e-02, 
            5.368285775e-01, -2.803088725e-01, -1.179232121e+00, 
            -8.320108056e-01, 4.817663729e-01, 3.057732880e-01, 
            -2.937034070e-01, -6.902597547e-01, -7.986056805e-01, 
            -1.475280523e-01, -2.555979252e+00, 3.302640021e-01, 
            -1.492577642e-01, 7.017863393e-01, 2.449569106e-01, 
            -7.287625074e-01, -1.499973685e-01, 9.179032445e-01, 
            4.921739399e-01, 3.896520734e-01, -1.254858255e+00, 
            -8.665152192e-01, 4.031588882e-02, -7.082474977e-02, 
            1.074534804e-01, -3.466225415e-02, -3.290771246e-01, 
            4.085211083e-02, 3.910181224e-01, 5.563691854e-01, 
            -8.149451762e-02, 5.802656412e-01, 1.602222323e-01, 
            -1.857895851e-01, -3.157269657e-01, -1.004798174e+00, 
            -1.254443288e+00, 5.332325697e-01, -1.260239720e+00, 
            -2.811146379e-01, 1.052052379e+00, -6.064319238e-02, 
            -3.868687153e-01, 7.048045844e-02, 5.939766169e-01, 
            1.467314065e-01, -1.433993727e-01, 1.331957728e-01, 
            -3.783424795e-01},
        {-7.481548190e-01, -1.930018067e-01, 1.323076487e-01, 
            -8.444290757e-01, -9.646783471e-01, 5.080776215e-01, 
            5.587541685e-02, 1.443797052e-01, 3.121697605e-01, 
            -1.272932719e-02, 2.974099815e-01, 2.976740003e-01, 
            1.803303510e-01, -8.150172979e-02, -1.542808115e-01, 
            5.703411698e-01, 4.930124879e-01, 2.489567101e-01, 
            4.189692736e-01, 1.634864658e-01, 2.121861577e-01, 
            2.550462186e-01, -3.650122881e-02, -1.315020472e-01, 
            -5.611579120e-02, 2.621830106e-01, 2.194613218e-01, 
            2.669071555e-01, -2.171801567e+00, 4.476590455e-01, 
            1.269441331e-03, 5.820529535e-02, -3.937146962e-01, 
            1.497971565e-01, -6.858529896e-02, 4.685138762e-01, 
            1.273223311e-01, -5.182868242e-01, -2.685199678e-01, 
            8.335256018e-03, 5.667790174e-01, -6.206121668e-02, 
            -1.847098321e-01, 3.549537957e-01, -3.720654249e-01, 
            -2.043582946e-01, -5.715897307e-02, 2.277376205e-01, 
            1.508558393e-01, 4.276689887e-01, 5.714366585e-02, 
            4.288598597e-01, -2.152586579e-01, -7.087485492e-02, 
            2.069217712e-01, 3.190945089e-01, 4.470420480e-01, 
            9.566818923e-02, -5.554000139e-01, -1.159030676e+00, 
            -1.859888881e-01, -2.124572843e-01, 3.143330514e-01, 
            -9.648215771e-01, -7.486354709e-01, -3.836290538e-01, 
            -2.076874226e-01, -1.796042621e-01, -1.842139661e-01, 
            3.150453269e-01, 1.529882103e-01, -3.225858510e-01, 
            -3.307145461e-02, -1.537139267e-01, -1.635685563e-02, 
            -5.332412571e-02, 1.786797047e-01, 1.135378238e-02, 
            -2.230111957e-01, -7.720924020e-01, 4.452959001e-01, 
            -8.747693500e-04, -1.001165628e+00, 3.617845103e-02, 
            5.148618296e-02, 2.814016342e-01, -1.216559559e-01, 
            -1.120998338e-01, 1.494128108e-01, -1.808099449e-01, 
            -1.137430742e-01, 3.942019641e-01, 4.700789154e-01, 
            -6.794376671e-02, 4.733523726e-02, 3.574835062e-01, 
            6.101911515e-02, 8.347781003e-02, 1.288348287e-01, 
            -8.245326579e-02},
        {9.154409170e-03, 7.043677568e-02, 7.506652921e-02, 
            9.700421691e-01, 5.258111358e-01, 2.459326237e-01, 
            -9.535307288e-01, -2.669816017e-01, 1.984177679e-01, 
            -1.424199492e-01, -2.655619681e-01, -1.601281464e-01, 
            -5.613954663e-01, 2.563491464e-01, 1.141539589e-01, 
            -1.134054139e-01, 8.314406127e-02, 3.575037001e-03, 
            -6.319414079e-02, 2.505705059e-01, 3.052089512e-01, 
            -5.180292726e-01, -9.221579880e-03, 1.402437985e-01, 
            -7.971428037e-01, 2.539252490e-02, 3.274594992e-02, 
            -2.852734327e-01, 3.234401941e-01, -1.024708524e-02, 
            4.849505797e-02, 6.666452438e-02, 9.039495140e-02, 
            1.990163699e-02, 1.286579221e-01, -8.123403043e-02, 
            -8.296525478e-01, 2.263987511e-01, -1.161832452e+00, 
            2.272349596e-01, -1.063271612e-01, -2.503626943e-01, 
            -4.210516512e-01, -5.658572316e-01, 3.221850842e-03, 
            -6.363227963e-02, 1.221000433e+00, 5.765478611e-01, 
            4.224536717e-01, -1.083331555e-01, 2.543062568e-01, 
            1.111233309e-01, -4.210519493e-01, -2.249116451e-01, 
            7.412566543e-01, -2.051744312e-01, -3.496328741e-02, 
            -4.025131166e-01, 1.896171868e-01, 9.973726273e-01, 
            -2.649728358e-01, 1.089833006e-01, -2.864289880e-01, 
            1.036532998e+00, -1.067161337e-01, 2.833630741e-01, 
            4.874620140e-01, 4.786778688e-01, 1.179672331e-01, 
            8.350671828e-02, -4.778129980e-02, 9.549340606e-01, 
            -3.097323775e-01, -3.479500413e-01, -3.634647727e-01, 
            -5.327314138e-02, -2.881753147e-01, 7.532526255e-01, 
            3.990981579e-01, -2.883735001e-01, -1.379467398e-01, 
            -1.107762337e+00, -1.139914766e-01, 6.548056751e-02, 
            2.219176292e-01, -2.205221057e-01, 7.203543186e-01, 
            1.709137708e-01, 9.577000886e-02, 6.070698500e-01, 
            -3.576013148e-01, 9.784671068e-01, -2.479962558e-01, 
            8.262716532e-01, -8.062064052e-01, 8.747983724e-02, 
            -8.493199944e-01, 2.830340266e-01, -3.838222027e-01, 
            4.485260546e-01},
        {-1.396236569e-01, 1.934804469e-01, 2.615008056e-01, 
            1.177711189e-01, -7.269448787e-02, 2.395781428e-01, 
            -6.063607708e-02, 4.132590890e-01, 2.000887543e-01, 
            -2.251881212e-01, 2.870553434e-01, -6.927189976e-02, 
            -1.086376831e-01, 1.228486449e-01, 2.946009934e-01, 
            1.029931158e-01, 2.056243829e-02, 1.620387435e-01, 
            9.610240906e-02, 4.299956858e-01, 1.497175246e-01, 
            -1.193023100e-01, 1.614283472e-01, 2.808189392e-01, 
            3.267753124e-01, 2.757539749e-01, -1.674060971e-01, 
            1.212047879e-02, -1.969836652e-01, -5.973981693e-02, 
            -1.484091282e-01, -6.402935386e-01, 6.744743586e-01, 
            -9.466078132e-03, 1.274195313e-01, -1.856378317e-01, 
            -6.669521332e-01, -2.538771927e-01, -8.951351792e-02, 
            -5.669676140e-02, 2.718028054e-02, 1.255222708e-01, 
            1.170542538e-01, -5.106891990e-01, -5.758239627e-01, 
            -3.410580873e+00, -2.023516446e-01, 2.754367590e-01, 
            1.407350302e-01, 4.961903766e-02, 1.558399498e-01, 
            3.420618773e-01, 3.028997481e-01, -9.421785176e-02, 
            1.285546273e-01, 2.244732678e-01, 2.310984284e-01, 
            -7.192905247e-02, -6.162251830e-01, 2.831704915e-01, 
            3.371295929e-01, -6.350447536e-01, 4.100748524e-02, 
            2.663180232e-01, -3.112100624e-02, 5.729293451e-02, 
            4.862695634e-01, -2.728476226e-01, 2.719384730e-01, 
            1.719141155e-01, 8.880871534e-02, 6.281307433e-03, 
            -1.812305450e-01, -2.870304585e-01, 1.019552872e-01, 
            1.721033901e-01, -1.720447540e-01, 3.941068351e-01, 
            -4.516924322e-01, 2.191220820e-01, 1.406244338e-01, 
            -3.173643723e-03, 1.512010932e+00, 4.503320530e-02, 
            -9.287433326e-02, -1.040566191e-01, -1.691643447e-01, 
            -8.487561345e-02, 4.165899940e-03, -5.281606317e-01, 
            1.518820524e-01, 3.558928072e-01, -1.766373515e-01, 
            -3.054298759e-01, -3.013120405e-02, -4.499337450e-02, 
            -6.530072689e-01, 1.686038077e-01, 2.571740448e-01, 
            1.372207236e-02},
        {-2.554822862e-01, -2.467506826e-01, 1.046952605e-01, 
            1.455021203e-01, -1.475476772e-01, 1.165871099e-01, 
            -3.349373937e-01, 2.661935687e-01, 1.382692456e-01, 
            8.173055202e-02, 1.800572574e-01, 1.891397238e-01, 
            4.177912697e-02, -1.072317600e+00, -4.528020322e-01, 
            6.202398986e-02, -1.112582162e-01, 6.850912571e-01, 
            2.041143626e-01, 8.836638331e-01, 2.415975332e-01, 
            -1.467363350e-02, 9.129163027e-01, -1.804699153e-01, 
            -8.136083484e-01, 1.745426208e-01, -8.436853439e-02, 
            -2.570123076e-01, -5.473319888e-01, 1.750730276e-01, 
            -4.903036058e-01, -1.228326559e+00, -2.397032678e-01, 
            1.765843332e-01, 5.711546540e-02, 1.199677065e-01, 
            -1.518802792e-01, -7.259138227e-01, 4.294439554e-01, 
            -2.589443624e-01, 1.720672660e-02, 3.143185005e-02, 
            1.836231500e-01, 3.027328849e-01, -8.094019294e-01, 
            2.824837565e-01, 2.416071855e-02, 3.705961704e-01, 
            3.522653878e-02, 7.257457823e-02, -7.669631243e-01, 
            5.071411654e-02, -2.920031250e-01, -6.197932959e-01, 
            5.262658000e-01, 3.932965696e-01, 1.401253194e-01, 
            -5.798385739e-01, -6.998939514e-01, -2.235658169e-01, 
            -3.637687862e-01, -8.111217022e-01, 2.749533951e-01, 
            6.693418622e-01, 6.042338014e-01, -2.892892957e-01, 
            -3.059812188e-01, -7.090502381e-01, 4.487981200e-01, 
            1.866730005e-01, 2.029775679e-01, 4.445544183e-01, 
            5.027720928e-01, 1.607703567e-01, 3.210342824e-01, 
            -2.075331360e-01, 1.438631564e-01, 2.324296683e-01, 
            -7.369747758e-01, 1.131060347e-01, -5.920887738e-02, 
            -4.047107697e-01, 2.102370858e-01, -1.607506424e-01, 
            -3.701910377e-01, -2.550324798e-01, 5.416244864e-01, 
            -3.665842861e-02, 3.813675046e-01, -2.870216668e-01, 
            6.478564739e-01, 7.454746962e-01, -8.495304734e-02, 
            6.097489595e-01, 2.475938797e-01, 7.741928101e-03, 
            -3.225460052e-01, 2.097603083e-01, -9.538279474e-02, 
            -1.203421354e-01},
        {2.032669336e-01, 2.891601324e-01, -7.891671360e-02, 
            9.104393423e-02, -1.678585075e-02, 1.477086693e-01, 
            3.040047288e-01, -8.724858761e-01, -5.096412450e-02, 
            -1.019494295e+00, -8.832424879e-03, 2.787319124e-01, 
            -3.628696501e-01, -2.842402458e-01, -3.315830603e-02, 
            1.765258461e-01, -7.770957798e-02, 2.682311237e-01, 
            -1.704886369e-02, 5.143319070e-02, 1.965249777e-01, 
            -9.644418955e-03, -8.736401796e-03, 4.058907181e-02, 
            -3.025780320e-01, 3.359220922e-01, -2.653283179e-01, 
            -5.823231116e-02, -9.919016361e-01, -1.722806841e-01, 
            -2.462248504e-01, -7.157374620e-01, 2.417840511e-01, 
            -1.261900514e-01, -1.780315787e-01, -2.062026560e-01, 
            -2.623940706e-01, 8.530418575e-02, -1.682835221e-01, 
            6.944402307e-02, 1.254087985e-01, -7.868674397e-02, 
            -2.361984225e-03, 1.254922003e-01, -2.956605256e-01, 
            1.492047310e-01, -3.192233667e-02, 3.123122156e-01, 
            1.045250446e-01, 2.529329620e-02, -6.629977375e-03, 
            1.776594669e-01, -1.589480639e-01, -1.416450292e-01, 
            2.724732757e-01, 1.036103964e-01, 9.649809450e-02, 
            1.333652437e-01, -6.770505905e-01, 6.960422546e-02, 
            -2.550633252e-01, -1.255439371e-01, 2.571429014e-01, 
            7.745087147e-01, -9.982844591e-01, 2.772620618e-01, 
            -9.867963940e-02, 1.199417636e-01, 4.517063200e-01, 
            2.353683710e-01, 1.442653984e-01, -6.630107760e-01, 
            -5.264686346e-01, 1.203878224e-01, -1.533184499e-01, 
            -2.656531930e-01, -6.123771071e-01, -8.591925502e-01, 
            1.806393713e-01, 1.221627355e+00, 5.652272701e-02, 
            3.148125708e-01, -3.000256419e-01, -2.220368236e-01, 
            -2.492698878e-01, -6.493101716e-01, 1.690474600e-01, 
            -3.573933383e-03, 4.827965796e-02, -1.230643541e-01, 
            5.041801557e-02, 2.967827320e-01, -3.784185350e-01, 
            -9.147755802e-02, -3.224916160e-01, -8.875026368e-03, 
            1.171721742e-01, 4.113933742e-01, -3.430636227e-02, 
            -1.398411244e-01},
        {-2.195087224e-01, -8.345966041e-02, -1.489430517e-01, 
            -1.174220681e+00, -6.387170553e-01, -3.549009860e-01, 
            -3.689534962e-01, -3.995231539e-02, -7.051956654e-01, 
            1.054366380e-01, -2.584431171e-01, -2.888133824e-01, 
            -6.218535900e-01, 2.955478430e-01, 5.494514480e-02, 
            -4.836406112e-01, -3.412911296e-01, -1.496895552e-01, 
            -3.523232043e-01, -1.655580401e-01, -3.032314479e-01, 
            -7.900673896e-02, 2.124667317e-01, 9.978619218e-02, 
            -4.457365572e-01, -2.647343576e-01, -1.976968199e-01, 
            -2.444754243e-01, -5.293664336e-01, -2.356268317e-01, 
            6.913990974e-01, -4.446574673e-02, 2.190087438e-01, 
            5.025818199e-02, -4.161500931e-01, -2.623923719e-01, 
            -5.254654884e-01, -6.059529185e-01, 5.161502957e-01, 
            -4.944539815e-02, -4.155764878e-01, 3.062071204e-01, 
            -9.356662631e-02, -5.379324555e-01, 2.707746923e-01, 
            -4.067510739e-02, 4.042422399e-02, -8.387266397e-01, 
            3.872850537e-01, -1.887946278e-01, 3.837462962e-01, 
            -6.916345954e-01, -2.330458462e-01, 1.833207011e-01, 
            -6.852416992e-01, -8.462954760e-01, -3.786792755e-01, 
            -2.080347203e-02, -1.249586269e-01, -1.122686505e+00, 
            9.935485572e-02, 2.846038043e-01, -6.549759507e-01, 
            -1.932272792e+00, 1.331807226e-01, 4.752723500e-02, 
            -2.648821175e-01, 2.312512845e-01, 3.798841834e-01, 
            -2.621187866e-01, -2.846233547e-01, -2.155482769e-01, 
            7.172835618e-02, 1.136547327e+00, -8.437080383e-01, 
            -8.352074772e-02, -4.477927983e-01, -1.512579799e+00, 
            -8.812339902e-01, -6.373192072e-01, -3.125468791e-01, 
            -9.693674743e-02, -3.898853660e-01, 3.732567728e-01, 
            -3.859382868e-02, -6.165900826e-02, -1.386208415e+00, 
            4.431881905e-01, -7.688774914e-02, -7.613732815e-01, 
            -5.711033940e-01, -1.768395424e+00, -3.243945241e-01, 
            -4.087777138e-01, 4.020633698e-01, -2.348174453e-01, 
            -5.408603549e-01, 1.252711862e-01, -4.145111144e-01, 
            -1.827595532e-01},
        {-2.627994120e-01, 7.836015224e-01, 6.207752228e-01, 
            -1.780580729e-02, 3.577606082e-01, 6.229748726e-01, 
            -1.254686713e-01, 8.205055445e-02, 8.142072558e-01, 
            -2.794600129e-01, 1.009990931e+00, -1.590129256e+00, 
            4.767369330e-01, 2.897284329e-01, 3.332521617e-01, 
            7.838850617e-01, 4.942115247e-01, 6.357594728e-01, 
            5.468286872e-01, 7.827183008e-01, 7.856976986e-01, 
            5.061672926e-01, -4.576742351e-01, 7.953333259e-01, 
            -5.420969129e-01, 7.510039210e-01, 1.074050665e-01, 
            2.129678130e-01, -2.243567258e-01, 7.139983177e-01, 
            -1.695769668e+00, -3.155291080e-01, 3.545091748e-01, 
            2.171875387e-01, 6.385284662e-01, 6.594048738e-01, 
            2.002573758e-02, -1.465901017e+00, 4.061222449e-02, 
            -2.204381377e-01, 8.258711100e-01, -1.023171067e+00, 
            4.874618649e-01, 3.498904407e-01, -4.585352540e-02, 
            -1.024255902e-01, -1.222368360e+00, 6.087791324e-01, 
            7.458695173e-01, 6.390766501e-01, -2.020159721e+00, 
            6.440858245e-01, -1.141909063e-01, -1.164586067e+00, 
            -5.955184102e-01, 6.753104329e-01, 4.506332874e-01, 
            -1.601853371e+00, -5.889273286e-01, -3.983511925e-01, 
            2.119847685e-01, -3.149594784e+00, 6.884158850e-01, 
            -6.667157412e-01, -2.482151240e-01, 9.592777491e-02, 
            4.003333747e-01, -4.989607632e-01, 6.199956536e-01, 
            -1.365431249e-01, 6.062853336e-01, -1.890533864e-01, 
            -2.323604226e-01, 2.643668950e-01, 4.450149238e-01, 
            4.841746390e-01, 5.793464184e-01, 2.918680012e-01, 
            1.191248298e-01, 4.006876349e-01, 7.306215763e-01, 
            -1.724053174e-01, -1.085234642e+00, 9.968295693e-01, 
            3.706894517e-01, -4.135939777e-01, -1.224678941e-02, 
            -6.753626466e-01, 8.808051944e-01, -1.895371228e-01, 
            -3.897641599e-01, -4.087997973e-01, 6.455891728e-01, 
            5.705352128e-02, 1.873423457e-01, 7.227050066e-01, 
            -5.380526185e-01, -2.770195603e-01, 3.804113269e-01, 
            -8.144252747e-02},
        {2.500744723e-02, 5.912287235e-01, 5.590658188e-01, 
            2.110913396e-01, -1.535802037e-01, 5.580811501e-01, 
            -4.108686149e-01, 2.508755922e-01, 3.320553601e-01, 
            1.205534954e-02, 6.066843867e-01, -8.203205466e-02, 
            6.988175213e-02, 1.004803538e+00, 4.838618636e-01, 
            2.815707624e-01, 2.554957289e-03, 2.529793084e-01, 
            4.408104420e-01, -1.102360617e-02, 3.487043381e-01, 
            1.787665933e-01, 2.800562978e-01, -8.872888982e-02, 
            -3.870153427e-01, 2.181026340e-01, -3.224788979e-02, 
            -2.307345718e-01, -2.986126244e-01, 2.322705239e-01, 
            -1.198606968e+00, 9.772222489e-02, 1.459213048e-01, 
            5.760569572e-01, 4.881183803e-01, 3.675203621e-01, 
            -9.762949944e-01, -1.467914879e-01, -2.383816093e-01, 
            -2.938752174e-01, 5.267930031e-01, -3.266479373e-01, 
            3.359721005e-01, -8.825498223e-01, -7.811148167e-01, 
            9.331098199e-02, -7.122811675e-01, 9.582756460e-02, 
            5.348309278e-01, 5.626469254e-01, -5.840250850e-01, 
            4.212666750e-01, 2.388675511e-01, -5.438867807e-01, 
            2.795369029e-01, 2.278736681e-01, 5.461931229e-01, 
            -1.520456791e+00, -1.580777764e+00, 2.675673664e-01, 
            -1.883239001e-01, -1.954615712e-01, 4.432005584e-01, 
            -3.453484178e-01, 8.608258516e-02, 2.898780107e-01, 
            6.337825060e-01, -8.540949225e-01, -1.132204890e+00, 
            -5.587013066e-02, 3.531704843e-01, 1.035042882e+00, 
            -7.668593526e-02, 2.573538423e-01, 1.331911683e-01, 
            2.173008770e-01, -1.673152894e-01, 5.396189094e-01, 
            -2.122173458e-01, -1.357998550e-01, 4.610165656e-01, 
            -2.950622141e-01, -3.647183180e-01, 6.389306188e-01, 
            9.342261404e-02, 3.335082829e-01, 1.459559798e-02, 
            -1.036938190e+00, 2.432097346e-01, 5.477062985e-02, 
            -4.274834096e-01, -4.589472413e-01, 9.420355782e-03, 
            -6.994420290e-02, -7.242927551e-01, 1.374526918e-01, 
            -3.540906608e-01, -5.323106647e-01, 1.358121783e-01, 
            -9.241545796e-01},
        {4.953887463e-01, 3.638510406e-01, 4.510057271e-01, 
            -6.748702377e-02, -3.691641986e-01, 6.092047095e-01, 
            -5.761920214e-01, 1.584916264e-01, 4.672456384e-01, 
            -6.079866886e-01, 2.707170844e-01, -1.582427323e-01, 
            -1.650377065e-01, 4.381392524e-02, -2.167676389e-02, 
            3.847703636e-01, 7.862201333e-02, -5.398771763e-01, 
            2.698949277e-01, -2.188624144e-01, 4.148927331e-01, 
            3.716670573e-01, 8.198966831e-02, 2.545828372e-02, 
            -6.440212727e-01, 1.699622869e-01, -4.961688444e-02, 
            -2.237122506e-01, 4.682714492e-02, 4.964195788e-01, 
            -5.579847842e-02, 2.940987051e-01, 2.668917179e-01, 
            5.492031574e-01, 3.303513229e-01, -9.498104453e-02, 
            -5.191131234e-01, -2.070212811e-01, -6.022264436e-02, 
            1.425453126e-01, 3.128671646e-01, -2.670521438e-01, 
            2.619035244e-01, -3.235712945e-01, -1.249750033e-01, 
            -6.368742138e-02, -3.597622812e-01, -3.091167510e-01, 
            1.609292775e-01, 3.885154426e-01, 1.670802683e-01, 
            4.953214526e-01, 2.658145428e-01, 4.599460959e-01, 
            4.579488337e-01, 2.249381542e-01, 3.906663060e-01, 
            -6.469718646e-03, -5.173069239e-01, 5.329815298e-02, 
            -5.416883230e-01, -1.694339663e-01, 2.918851674e-01, 
            3.900519609e-01, -1.299422026e+00, 4.194527268e-01, 
            5.066488981e-01, -6.257898808e-01, -3.646894991e-01, 
            -3.300190866e-01, 3.700569272e-01, 3.667165935e-01, 
            -8.461519480e-01, -3.335430622e-01, -2.417462766e-01, 
            2.934489548e-01, 3.114332259e-02, 3.078406155e-01, 
            -6.983349919e-01, -6.828336120e-01, 3.031796515e-01, 
            -7.865626216e-01, -8.005826473e-01, 4.431940615e-02, 
            5.661756992e-01, -5.246285200e-01, -1.250424236e-02, 
            1.304026842e-01, -1.686414182e-01, 8.306583762e-01, 
            -1.974324584e+00, -1.542198509e-01, -6.367973238e-02, 
            -1.368532479e-01, 7.699695975e-02, 8.124657720e-02, 
            -8.628125191e-01, 1.641630679e-01, 7.340522856e-02, 
            1.240713894e-01},
        {9.422140718e-01, 6.991663575e-02, 1.474948674e-01, 
            -1.885488778e-01, 1.002987698e-01, 2.862505317e-01, 
            4.953939319e-01, -1.933839619e-01, 2.938830256e-01, 
            -6.469923854e-01, 4.045380950e-01, 1.793767512e-02, 
            -4.769384563e-01, -2.852603048e-02, -7.117952108e-01, 
            6.271266341e-01, 2.457063198e-01, 5.610771775e-01, 
            2.173039913e-01, 6.815792918e-01, 4.612632096e-01, 
            2.870466411e-01, 6.327485442e-01, 2.913803756e-01, 
            -1.709487736e-01, 4.989707470e-01, 4.181485474e-01, 
            2.627921700e-01, -6.877516508e-01, 2.171902657e-01, 
            -7.022581995e-02, -5.722886324e-01, 7.745657116e-02, 
            6.002917141e-02, -2.147243619e-01, 2.491809577e-01, 
            -2.874397337e-01, -1.362394452e+00, -1.110401392e+00, 
            -1.825976729e+00, 3.842021227e-01, -6.764226407e-02, 
            -6.302803755e-01, 1.328150034e-01, -6.101867184e-02, 
            -1.061039865e-01, 4.349160492e-01, 2.074999660e-01, 
            4.570518434e-02, 4.996980727e-01, 1.101007685e-01, 
            3.850982487e-01, -8.002014756e-01, -2.995842397e-01, 
            8.728194982e-02, 3.975903988e-01, 3.414947391e-01, 
            3.800269589e-02, 1.385024097e-02, -4.362883568e-01, 
            1.618862450e-01, -2.660320401e-01, 1.980694383e-01, 
            1.035516709e-01, 4.106026292e-01, -4.787075222e-01, 
            -1.863453686e-01, 3.846968412e-01, 7.050010562e-02, 
            1.035602450e+00, 3.114868402e-01, -4.877539277e-01, 
            -6.112699509e-01, -8.992767930e-01, -4.816828668e-01, 
            -1.937110722e-01, 1.226924062e-01, 9.434804320e-01, 
            1.702533960e-01, -1.190268844e-01, 3.089707494e-01, 
            -8.807621598e-01, 1.808529943e-01, 5.380392447e-02, 
            -3.714577854e-01, 4.530059919e-02, -7.024393678e-01, 
            -7.666428089e-01, 6.133690476e-01, -9.764287472e-01, 
            -4.630992562e-02, 1.263029575e+00, 3.735510409e-01, 
            2.066676319e-01, 1.896598004e-02, 4.186217487e-01, 
            -1.052654386e+00, 2.022467852e-01, 1.079371646e-01, 
            -5.093049407e-01},
        {-7.191563398e-02, 2.937237322e-01, 4.854750931e-01, 
            -4.399583638e-01, -4.198170081e-02, 4.445926547e-01, 
            -1.667638868e-01, -2.347275764e-01, 2.690124214e-01, 
            -6.800368428e-02, 4.500127137e-01, 1.390715241e-01, 
            -2.797459960e-01, 1.454676241e-01, -3.505567312e-01, 
            5.447693467e-01, 1.846916229e-01, 2.048003972e-01, 
            2.498774379e-01, 3.748623431e-01, 4.316090643e-01, 
            3.746717274e-01, -1.524556428e-01, 3.378980160e-01, 
            -1.149880663e-01, 2.514607608e-01, 3.299387395e-01, 
            -2.326548845e-01, -6.649656296e-01, 3.299465477e-01, 
            -1.227124333e-01, -3.497922421e-01, 5.564247966e-01, 
            1.676887423e-01, 1.139641926e-01, 6.504469514e-01, 
            -3.956132829e-01, -1.714730501e+00, -1.912515759e-01, 
            -3.011836410e-01, 6.184473038e-01, -6.299705803e-02, 
            2.250576913e-01, -4.645387828e-01, -9.995480068e-03, 
            1.206684671e-02, -9.366833568e-01, 6.556907892e-01, 
            7.565733194e-01, 6.021835804e-01, 7.636766136e-02, 
            6.064506173e-01, -7.837739587e-01, 6.375403702e-02, 
            -6.297652721e-01, 5.486174822e-01, 4.375008941e-01, 
            1.485722810e-01, -1.848426461e-02, 1.392364949e-01, 
            9.175436571e-03, -1.359599829e-01, 3.415061533e-01, 
            3.191427514e-02, 7.834473848e-01, -3.994842991e-02, 
            1.924247891e-01, -5.697229505e-01, 3.748630360e-02, 
            -9.513258189e-02, 4.262453914e-01, -2.008173019e-01, 
            5.628468841e-02, -3.496243358e-01, -2.307870090e-01, 
            2.345099598e-01, 4.880825803e-02, 1.998859644e-01, 
            -6.389775276e-01, -4.065547884e-01, 3.294680119e-01, 
            1.253909525e-02, 7.617496699e-02, 2.333727628e-01, 
            1.035317313e-02, 3.016727567e-01, -3.928095698e-01, 
            -1.492804885e+00, 2.924239337e-01, -6.365494728e-01, 
            -2.155244201e-01, 7.597339749e-01, 3.919999897e-01, 
            -5.197902322e-01, 1.554936729e-02, 4.262754023e-01, 
            -7.808486819e-01, 4.817857742e-01, 1.802221835e-01, 
            -3.439163789e-03},
        {4.370016158e-01, 2.633604407e-01, 1.473634392e-01, 
            2.574592829e-01, 4.071764350e-01, 1.272030175e-01, 
            -3.701044619e-01, -6.363307685e-02, 1.584741771e-01, 
            -6.399615854e-02, -1.299202144e-01, -2.256624550e-01, 
            2.081448436e-01, -6.884867549e-01, -1.624972671e-01, 
            1.815091074e-02, 8.924698830e-02, 5.322631449e-02, 
            -1.273745596e-01, 9.587398916e-02, 1.688349992e-01, 
            3.316080896e-03, -4.112944752e-02, -1.222297363e-02, 
            -8.295955062e-01, 6.140490621e-02, 6.849791110e-02, 
            -8.870935440e-02, -5.084322765e-02, 1.387122422e-01, 
            -3.854128122e-01, 1.317233741e-01, 9.224995971e-02, 
            -2.527183481e-02, 3.573828563e-02, 9.859526902e-02, 
            -3.588077128e-01, 1.059299149e-02, 4.168521762e-01, 
            -4.711657166e-01, -1.792345643e-01, -4.330551922e-01, 
            3.151477873e-01, 1.731077284e-01, 4.689578712e-01, 
            3.643319011e-01, 1.845368594e-01, 1.533305198e-01, 
            -4.822432250e-02, 1.022129902e-03, -2.411351353e-01, 
            7.430537790e-02, -5.548384786e-01, 3.163750172e-01, 
            -5.491341352e-01, 1.551432461e-01, -9.564982355e-02, 
            -8.853693008e-01, 2.521804273e-01, 2.050534636e-01, 
            -1.258758008e-01, 6.051215529e-01, 2.458819002e-01, 
            -2.142897099e-01, -1.441468447e-01, -7.469811291e-02, 
            5.941212177e-02, -2.242416143e-01, 4.273270071e-01, 
            6.661970168e-02, -1.590107828e-01, 2.055848986e-01, 
            -4.168609679e-01, 3.391754329e-01, 2.435306553e-03, 
            -1.839431189e-02, -5.877622962e-02, -2.312012166e-01, 
            -3.128196299e-02, 5.439096596e-03, 1.565532684e-01, 
            4.393550158e-01, -6.265512109e-01, 5.981146693e-01, 
            2.401485741e-01, -1.107801199e+00, 3.026857078e-01, 
            -4.058171511e-01, -4.394255951e-02, 2.106527537e-01, 
            -5.458668806e-03, -1.477054656e-01, -6.661871821e-02, 
            1.982237101e-01, 3.932689130e-01, 7.200048864e-02, 
            -4.002551436e-01, -1.207047582e+00, -1.805485785e-01, 
            1.752783805e-01},
        {-7.425028682e-01, -2.618823349e-01, 2.711277604e-01, 
            1.474399567e-01, -9.005630761e-02, 1.943274289e-01, 
            2.158685327e-01, -4.797876775e-01, 8.523985744e-02, 
            4.993219674e-01, -5.108842626e-02, -3.142625093e-01, 
            7.277449965e-02, 2.036435753e-01, -4.156493247e-01, 
            3.060812652e-01, 1.094551831e-01, 9.805659205e-02, 
            9.960327297e-02, 3.978174627e-01, 3.153717816e-01, 
            3.077214360e-01, 6.149222851e-01, 3.133228123e-01, 
            -8.710612543e-03, -1.212867349e-01, 8.056887984e-01, 
            3.281149268e-01, -1.673768312e-01, 1.624439061e-01, 
            -4.554840922e-02, -7.196790725e-02, -3.828969598e-01, 
            -2.626098096e-01, -1.892266236e-02, 8.033910990e-01, 
            4.353809059e-01, -1.284476221e-01, 1.816451550e-02, 
            -1.018796787e-01, 2.199681550e-01, -4.363278393e-03, 
            2.912195921e-01, 6.273655891e-01, 2.651651800e-01, 
            -8.977648735e+00, -1.412142664e-01, -8.755345643e-02, 
            -4.457877576e-01, 1.304559559e-01, 8.731421828e-02, 
            -1.371787023e-02, -8.063047528e-01, 7.059332728e-02, 
            3.527826965e-01, 2.136628926e-01, 2.025777549e-01, 
            2.473610640e-01, -7.312275767e-01, 3.505240753e-02, 
            -8.233755082e-02, 4.651167989e-01, -6.782020330e-01, 
            1.483786404e-01, -6.923005581e-01, -7.598680854e-01, 
            -5.201293826e-01, -6.616094112e-01, -4.563060030e-02, 
            -1.803675890e+00, 2.820844352e-01, 5.908440351e-01, 
            8.384678364e-01, -4.534749091e-01, -3.108586967e-01, 
            -2.237910591e-02, 4.982108772e-01, 4.455822334e-02, 
            -1.069529176e+00, -2.368206978e-01, -1.487453431e-01, 
            4.530837834e-01, -1.292741537e+00, -2.050031424e-01, 
            -1.012435108e-01, 3.125952184e-01, -6.693592668e-02, 
            -3.759308457e-01, 1.724343300e-01, 6.580024362e-01, 
            -2.564121485e-01, -1.639405847e+00, 3.341301084e-01, 
            1.702392250e-01, -4.648655355e-01, 2.025334835e-01, 
            -1.546262652e-01, -6.630502641e-02, 1.613620967e-01, 
            -3.068812191e-01},
        {3.218204677e-01, 7.950570434e-02, -1.729677171e-01, 
            2.282885015e-01, 2.383140922e-01, -1.800841689e-01, 
            -1.080846786e-01, -2.768045664e-01, 4.449846223e-02, 
            -5.328323841e-01, -1.974381506e-01, 3.425607383e-01, 
            -4.710496962e-01, 1.069879457e-01, -4.530974030e-01, 
            -2.907867432e-01, -3.508097827e-01, 2.265800536e-01, 
            -3.988353610e-01, 4.433260858e-01, 4.925140738e-02, 
            -2.267033011e-01, -2.456935495e-01, -1.457852870e-01, 
            5.205326080e-01, -6.946767122e-02, -4.915682971e-01, 
            -7.439539433e-01, -1.080059633e-01, -2.634075582e-01, 
            9.907836467e-02, -1.270327449e+00, 4.906361997e-01, 
            -4.535875618e-01, -3.512682617e-01, 1.714171767e-01, 
            -4.682519436e-01, -1.289490610e-01, 2.285594307e-02, 
            3.595108390e-01, 1.260041376e-03, 1.108374074e-01, 
            1.495215744e-01, -7.056718469e-01, -1.508314162e-01, 
            3.700463176e-01, -2.623397708e-01, -2.509483993e-01, 
            -2.957201004e-01, -2.839685380e-01, 5.861307494e-03, 
            -2.295989841e-01, -4.409753680e-01, 1.256012619e-01, 
            9.146739542e-02, -1.873475909e-01, -4.464337230e-01, 
            1.652636826e-01, 3.651939631e-01, 3.251379728e-01, 
            -1.535773128e-01, -1.994221807e-01, -3.913775831e-02, 
            2.288634181e-01, 1.252865791e+00, 4.861367941e-01, 
            1.513251215e-01, 4.101862311e-01, -3.432117701e-01, 
            -2.971996665e-01, -4.537863433e-01, 1.387262046e-01, 
            8.307046890e-01, 1.124208048e-01, -2.404931784e-01, 
            -2.288451195e-01, -3.414551318e-01, 9.545494914e-01, 
            5.254518986e-02, -2.306173295e-01, -2.297378927e-01, 
            -3.613676876e-02, 7.470698953e-01, 5.824191123e-02, 
            2.416006923e-01, 1.461290754e-02, 4.263930321e-01, 
            4.986281320e-02, -1.704485565e-01, 4.558036029e-01, 
            3.911722004e-01, 1.269023418e-01, -4.109688103e-01, 
            -2.356415242e-01, 3.234938085e-01, -1.673029214e-01, 
            -5.657148361e-01, -2.101140916e-01, -3.612493873e-01, 
            3.340081312e-04},
        {3.079199493e-01, 3.263801932e-01, 2.546257973e-01, 
            1.886815131e-01, -1.280021071e-01, 1.127650887e-01, 
            -6.980466098e-02, -1.467122734e-01, 5.204240680e-01, 
            -1.993641704e-01, 4.410664141e-01, 7.503331453e-02, 
            -1.534121782e-01, -5.240839347e-02, 1.295986325e-01, 
            2.993634939e-01, 1.594487876e-01, -5.055023432e-01, 
            2.031507194e-01, -2.044526488e-01, 2.591970563e-01, 
            2.378843576e-01, 1.416095793e-01, 4.238760471e-01, 
            -3.432256281e-01, -5.531512946e-02, -1.040335819e-01, 
            -2.359683812e-01, -7.791073918e-01, -2.706334554e-02, 
            1.689119823e-02, 6.444132328e-02, -1.522941440e-01, 
            -3.155757189e-01, 4.210933447e-01, 1.380505562e-01, 
            -8.085228801e-01, -4.939239472e-03, -6.202434897e-01, 
            -6.406407952e-01, 1.056265831e-01, 1.352898479e-01, 
            -4.002880454e-01, 1.418415271e-02, 2.049234957e-01, 
            -5.296614394e-02, 1.005971208e-01, -6.774532050e-02, 
            3.000653908e-02, 2.416429371e-01, -2.658750303e-02, 
            4.150956571e-01, 1.899909526e-01, 2.370409667e-01, 
            5.195321441e-01, -3.622967750e-02, 2.404985726e-01, 
            -2.119610459e-02, -2.834105194e-01, 2.174417973e-01, 
            6.688109636e-01, 2.661379874e-01, 2.707321383e-02, 
            2.635629177e-01, 2.754438818e-01, 1.018467173e-02, 
            5.547382236e-01, -2.733876109e-01, -5.550134778e-01, 
            -7.920031250e-02, 3.458347917e-01, 8.009685278e-01, 
            -7.548644543e-01, -6.167247519e-02, -6.266339123e-02, 
            2.372796237e-01, -2.869353890e-01, 5.474283099e-01, 
            -2.321449220e-01, -4.029161036e-01, 3.055099845e-01, 
            8.369725943e-02, -1.264169440e-02, 3.371050358e-01, 
            -6.789912581e-01, -6.910666227e-01, 5.604256690e-02, 
            1.987594962e-01, 2.402757667e-02, -9.120488763e-01, 
            -2.891757488e-01, -1.368637234e-01, -9.858667105e-02, 
            8.039258420e-02, 2.640568614e-01, 4.700990394e-03, 
            -7.526297569e-01, -1.901921257e-02, -1.177329943e-02, 
            7.442060113e-02},
        {-3.081335127e-02, -2.396096885e-01, 2.751684189e-01, 
            2.476790249e-01, -7.625014186e-01, 1.166881621e-01, 
            -5.651899427e-02, -3.599968553e-01, -6.228558421e-01, 
            -4.066371918e-01, -1.482632905e-01, -1.747442007e+00, 
            -3.894306719e-01, 4.112677276e-01, -1.376887411e-01, 
            3.319555894e-02, 2.760895528e-02, -3.338380456e-01, 
            -2.388408184e-01, -2.228618562e-01, 2.189255692e-02, 
            -8.613824099e-02, 1.154817581e+00, 2.221906334e-01, 
            -4.194000661e-01, 2.446572185e-01, 1.914138347e-02, 
            -1.445112936e-02, -1.024466753e+00, 5.853244662e-02, 
            4.299675226e-01, -4.640975595e-02, -6.779891253e-02, 
            2.170957811e-02, -1.483925879e-01, 1.049527302e-01, 
            4.572163895e-02, -1.863845229e+00, 1.028188109e+00, 
            -2.589063883e+00, -7.731661201e-02, -2.035921335e+00, 
            -1.593098976e-02, 8.552721888e-02, 4.776562154e-01, 
            1.735521108e-01, 1.772433370e-01, -3.778154552e-01, 
            1.040793538e+00, 8.063077927e-02, 3.063630164e-01, 
            -2.931684554e-01, 6.843320094e-03, 2.387174368e-01, 
            -1.242776513e+00, -2.588683963e-01, -1.498091817e-01, 
            -2.351873964e-01, -7.283641100e-01, -5.605846643e-01, 
            -1.403269265e-02, 2.230474725e-02, -3.977021277e-01, 
            -1.191530451e-01, -7.894983143e-02, 3.710723221e-01, 
            -1.231421158e-01, -1.699581623e+00, -7.193328142e-01, 
            -1.487167597e+00, -2.043767869e-01, 1.279450536e+00, 
            -1.007768393e+00, -3.943872452e+00, -1.171914339e+00, 
            -3.498193622e-01, -1.938643157e-01, 1.655015200e-01, 
            -1.652653217e+00, -3.323502541e-01, -9.440310299e-02, 
            6.944386959e-01, -9.076058269e-01, 4.306705892e-01, 
            -4.198886752e-01, 1.753634661e-01, -2.083884954e+00, 
            -1.035826683e+00, 2.852130830e-01, -1.400269985e+00, 
            1.881285757e-01, -2.661870003e+00, 1.871987991e-02, 
            1.477570646e-02, 9.715954065e-01, 8.035465330e-02, 
            -5.806236267e-01, -1.128687145e-04, -1.133074984e-01, 
            -1.340081215e+00},
        {8.185791969e-02, -4.825946093e-01, -3.580265045e-01, 
            5.972182155e-01, 1.458869278e-01, -1.615634263e-01, 
            3.849950433e-01, -5.888436735e-02, -4.924239814e-01, 
            1.684988588e-01, -8.844035864e-02, 4.522948563e-01, 
            -3.557282388e-01, -1.170903891e-01, 1.904463582e-02, 
            -2.400482744e-01, -1.967255324e-01, 2.806640267e-01, 
            -1.557575017e-01, 4.071481824e-01, -3.173665404e-01, 
            -7.281234860e-02, -3.167322651e-02, -2.743173242e-01, 
            -5.684329197e-02, -3.780766428e-01, -1.324100886e-02, 
            4.075007513e-02, 6.422232985e-01, -7.133200020e-02, 
            5.854505301e-02, -2.470828742e-01, 6.148817539e-01, 
            1.811690815e-02, -7.202892303e-01, 3.217086494e-01, 
            1.722748131e-01, -4.827514887e-01, -9.720334411e-02, 
            1.780578494e-01, -2.484461218e-01, -6.101511419e-02, 
            1.302844435e-01, 6.855975837e-02, -8.040285110e-01, 
            -8.389692307e-01, 2.765869796e-01, -7.496227026e-01, 
            3.151841164e-01, -2.112954110e-01, 3.303550929e-02, 
            -5.420557261e-01, -1.817894131e-01, 2.735213935e-01, 
            -4.376087710e-02, -4.059759676e-01, -2.709551454e-01, 
            9.533310682e-02, -2.076256424e-01, 9.732307866e-03, 
            2.417714447e-01, 4.323197603e-01, -5.977120996e-01, 
            -3.682811260e-01, -7.672194839e-01, 3.669518828e-01, 
            2.971754074e-01, 1.579779983e-01, -7.085183263e-01, 
            1.337455213e-02, -3.521288335e-01, 3.797218502e-01, 
            3.807914853e-01, 1.484266520e-01, -1.394191533e-01, 
            -2.069337964e-01, -9.479884466e-05, 9.550832510e-01, 
            -9.342138171e-01, -4.027266055e-02, -3.393152058e-01, 
            8.589105308e-02, 9.544055164e-02, -1.362209171e-01, 
            -2.342417985e-01, 5.052958131e-01, 8.096013963e-02, 
            -1.233598068e-01, -3.311921954e-01, 3.713578284e-01, 
            1.493871361e-01, -5.343547463e-01, 1.271384358e-01, 
            7.418208569e-02, -3.777711689e-01, -1.955166757e-01, 
            4.144492000e-02, 1.502922177e-01, 9.044682980e-02, 
            -4.768735766e-01},
        {-1.573559999e+00, -6.543184165e-03, 2.804695666e-01, 
            1.460332703e-02, 3.269727230e-01, 2.228828073e-01, 
            4.813754857e-01, -4.038194120e-01, -2.444733381e-01, 
            -1.160522699e-01, -4.922305793e-02, -7.422011346e-02, 
            2.704384327e-01, -2.374491245e-01, -1.117838979e+00, 
            3.582343757e-01, 2.809065282e-01, 3.176387548e-01, 
            2.160790116e-01, 3.171167374e-01, 3.012698591e-01, 
            1.074475721e-01, -1.632076204e-01, 3.350329399e-01, 
            -1.738009006e-01, 1.343182921e-01, 7.884536684e-02, 
            6.633526087e-02, 4.594113678e-02, 8.582922816e-02, 
            3.956415132e-02, -7.508907318e-01, -8.536052704e-01, 
            -2.590876520e-01, 3.315995634e-02, 1.991938502e-01, 
            -3.217288256e-01, 3.049982488e-01, -4.036543891e-02, 
            -5.737930164e-02, 9.899174422e-02, -5.459648371e-02, 
            3.534471095e-01, -2.302780598e-01, -3.362753689e-01, 
            -2.476566553e+00, 1.404100657e-01, 2.883633673e-01, 
            -2.976284921e-01, 2.798019648e-01, 4.393794760e-02, 
            9.344257414e-02, -2.262133062e-01, -2.686155736e-01, 
